[[[-1.5749974155472302,0.06897718886927925,1.0271463581262323,0.2179699850033418,0.6230714356557573,1.8165850061589335,-0.9000355229143759,-0.07527683168041438,-0.8330160830699925,-0.6269468542591746,0.5571591245868531,-0.8744540748318811,1.284160014001116,2.1075634480040057,-0.43704949101372326,0.1391925328320083,0.6331140508785452,1.3120765667692116,-0.944786791027922,-0.03584239102867302,-0.0780486194788242,-0.19562981936382415,-0.6816321996751565,1.8248921028243048,0.44174826196934736,0.26759446828073186,-0.19705427881771764,-0.41664738501593607,-1.163181764995463,-0.19738485627516802,0.08261975446691609,-0.5855295886708927,0.8188425204875336,-1.485261578578822,-2.7814916085162764,0.07887313530161254,0.19593452738829542,-0.4616258980658899,-0.7806626326372368,0.9952625157740278,0.436721111242098,0.08010212361999496,0.32557141829926384,0.24280395164185725,-0.27720519337969385,0.005849611509907094,-0.4906156340404123,-0.020269168180381603,-0.21820160563996477,0.5357089917677055,-0.4181287652777077,0.9030877232911673,-1.5861028987548278,-0.07359135329550562,-0.4199663834248253,0.4004570892334541,0.715409506764492,-0.08782186665254534,-1.230259833455258,1.392019789979756,-0.02343718714221218,-0.19223490118060566,0.936298311436178,0.441562162345615,0.3997760044679312,-1.1519663776906648,1.7138924296460099,0.3075158197649807,0.2507593815352383,0.3262528294325506,-0.1833129653514871,-1.749699397688773,0.47309891409289306,-0.6267013839632313,1.1871188308595717,-0.7658634046145302,1.6464304818248199,0.6685050419939832,-1.2090349503425821,-0.4790966493795739,0.20329882011309072,0.5357587870785104,-0.5009339244898725,-1.3621372972304913,-0.8732195947451882,-0.04554248970070196,-0.6385990672593526,-1.088971916091914,1.5065006740694789,0.08167640673913212,0.2892544382266548,-0.506007402317475,1.0976826678718734,0.2603224236294799,-0.3842958085778216,-1.2337314883701216,0.8461959075060714,-1.4633415045620908,-1.3566828567549363,1.3556650604758156,0.7989229768400213,0.12478287558056608,-0.31267386668038705,-1.2256470906990833,-1.3444659713358942,-1.7213838691611107,0.7819739996824101,0.22144481098359686,-1.4026713209627721,-0.965721186697143,-0.8307844339136031,0.595070822221247,-1.2999593012757948,0.06802265513982148,1.2579116820460594,-1.9303261239047689,-0.917355068113594,1.5066262987299879,0.20829266235633243,1.3027912432875193,0.34226074763847136,-1.3050936940184874,0.51657553484314,0.13994449541111376,0.1390069208267155,1.2274351063885212,-1.7991289167820907,1.3207485971275326,-0.5662766874719293,-1.218498381168488,-0.262337925404902,-2.02013079275974,0.7460126087544461,-0.20757481788763713,-2.164317431490413,-0.015529510843403368,1.4983258606562642,0.2680075144646289,2.8066589236112898,1.0224978152495459,-1.0085383546994624,0.5507473331801535,-0.9828547854939058,-0.9530751769254617,-0.7494300978118572,-0.7892478511330698,1.2835318669511966,1.9249245932791226,0.8362321983054845,0.13493399716626592,2.364757739424282,-0.1441207455347456,-0.8399950950954079,0.9658400302065223,-1.9388536719702596,0.6815800922829142,0.008516083504857662,1.2914773760120406,-0.796257397479907,-0.6737317711103331,-0.9853754163465048,-1.108169205862128,-0.24597400113905443,-0.2557677084272497,0.07389342434946984,0.7504702311387966,0.04564810704034269,0.7328237208784488,0.6012244900012231,1.1524976683352226,0.5411161655383337,1.2967907386068984,-0.25461151711585506,0.6448247635011173,-1.305116909002979,0.5653712619484957,-1.5336956301562692,-0.09165331909732036,-0.9551077083149849,-0.18410256370532888,-0.11472496568523102,-0.06672993542468547,-0.6239909281664698,0.5897128930099065,-0.22371868277339485,-1.2860641780935909,-0.3338431576928552,-3.071697575430003,1.2603253783286001,0.36538131192938494,-2.4837852165385343,0.2769039698797088,0.8887005337840459,-0.4383103050210724,0.4896487981933002,0.8608884974629506,-1.4211527262570112,0.4473008000601247,-0.47185824756434414,-0.9013178116093175,0.6098782927906761,-0.05072963161391319,-0.44696867906201265,0.5533257748361469,-0.08040449143145788,0.3473357291752992,-1.0580429555120596,-1.6335522923568042,-0.4871196933225434,-0.46941713685913866,1.382509958628294,-1.519605876599418,-0.5351272422522645,-2.462054702535219,-0.03996653442667352,-1.1996790911361226,-0.8169273018188339,1.0407687907412546,1.7090352160224955,1.467331232017978,1.3747722099291952,0.5466249214546295,0.04096390574506201,-0.9006312981206229,0.9268775569999761,0.577904272008643,1.4457849880286773,0.2770043616291684,1.2346905315053005,0.06448828008895749,0.7355631827502372,0.1125425256862184,0.5420279611202743,-1.1506821201388628,0.045023031126037345,-0.7041582034759214,-0.6716073993074394,0.11982378038397212,2.362211489404879,-0.44725182442146233,-0.7593382599814977,-0.2233809864427227,1.5361272327062256,1.0080175782151435,1.567762736560592,-0.22040431488322626,1.4816456379496727,0.21102065754330926,0.9171145198230743,-0.45614865950290673,0.7330002324613898,1.1104719175799505,0.3688934828443478,0.7511103720787167,-1.76349449142306,0.9533300395360035,0.4453169199899374,1.1092672917893815,-0.9021760730645287,-1.2446963253017078,-0.18274756921695456,-0.18900187779386057,-0.22487303596704422,-1.269204535207119,-0.25090993996314015,2.033039929233241,1.780808592430858,2.4574662792169386,2.505101858323567,2.8106337988965255,-0.34043334651271867,2.8067077437822574,1.5460788590768662,1.8258603379599199,0.02134780802003948,1.3172793614856024,1.2175662642943854,-0.1952823615747032,-0.6313819179840466,-0.4636362926924685,1.4238102786712195,0.6811644581978785,1.1559987979193425,-1.1312487436911902,0.2081613483414624,-1.6010856441108459,0.8012103877960635,-0.11713148396232533,0.32710111208076076,-0.5675493490690077,-1.2339603997463657,0.8488558274121334,-1.0910129050354274,1.5757893846243194,0.9804948214384397,1.9273896828606212,1.2706142624482433,0.15802299708120424,0.8953488002193308,-0.7205243058987612,1.1024253878732717,0.72801496469032,2.0507402329847872,-1.3419647567254331,-0.6828600109903983,-0.05283825685539606,0.020450163766683224,-1.3832680994188142,1.7321432840930024,-0.1439286955837542,0.043373196997619934,0.042579593686148845,-0.4112159148993645,1.0693955925501446,-1.6060133509743126,1.5042523246395079,-0.8127195296150204,-0.4019198739012017,-0.4430197410589962,-0.340315936338179,-0.45555068206144633,2.2130743441535654,0.4070598082112896,1.51636449268493,-0.30508457021019797,0.6627663162416775,1.4260918020971505,2.234895954488397,-0.10995386100606168,-0.1798821875044015,1.2530522242372415,1.1352767146217593,-0.6071053061937342,-0.03420476346729349,0.07337440815141427,0.7900511811278106,-1.4348552405364092,-0.749316150640461,-0.9182421500897981,0.4614436640912069,-0.7138877562476241,-0.7163950520866141,-0.7627868534175397,-0.9286382271285493,0.3133034856831686,2.2757008361988604,-0.24578455189415044,0.052501122761410966,1.0243031662883577,0.518523522699652,1.042236108711034,1.6217684495293883,-0.4326089309293151,1.2396941019413,-0.7106956605143565,0.5996097079480346,-0.7094600494453973,0.5238865494969075,-0.980502836383633,0.6301958902643814,0.1822235338208646,2.288888611814018,-0.2090727918493041,-0.32670179389003845,-0.3837053043866437,1.6255838539017238,-0.8597412624189804,-0.09376117107768434,-0.8632006338303854,0.44009252028492724,-2.218459326872646,0.3561752610383591,-0.1344502960444821,-1.5349412986975475,0.668773955744455,0.3217240137972483,0.34907199863316385,1.1188258557772848,0.9069906138768682,1.6039317758790517,1.1050950031421494,0.45839010948630643,1.1724978138059667,-0.3929068885666546,-1.0145713516471846,1.7063648406514222,0.7683536942777358,0.5446642280518115,0.7665027276904004,1.643545240582817,0.275492540046077,-1.117253872670331,0.19812425746363327,-0.47872286294588956,-0.39288936277415876,-0.8401700712463697,0.09413671296519827,-1.9534146369276773,-1.109090413473277,-0.32819622127374504,-1.3858929308034325,0.6208250284803287,0.41395945225574965,-1.0370917462147733,1.1505540423268164,1.5310491808859754,1.1761737431233947,0.15545014278800032,-0.9195320510654879,1.6093660515087391,0.05512095872678776,0.39403691702626936,-1.0452642611991199,-0.5680449389983934,-2.1990587182358836,-0.21000648326262328,-0.5072651679569182,1.9620004035913654,-1.4167113556367612,-0.40678665873641573,-1.5832124179373066,0.9061283070910374,-0.6235494897927731,1.0106649985074372,0.05171544638645557,-1.098036292139627,-0.2648124969168294,-1.4319641865646953,0.9495448198877448,-0.7585715444569722,0.7081798562141866,-0.4375021348906358,0.05101368864646027,0.4443451460111411,0.3057883414627064,0.5411636504249582,2.161587187657156,1.8385358568161967,1.1459911529166729,-1.3456030933231957,-0.2414984842078953,0.5104330155293172,0.4715708416171183,0.4681822669048205,-0.856004313521176,-0.5680379437831178,1.2243766276120505,0.4992694160555891,-1.4863614134807792,0.8777196674608769,0.17435043289238586,1.7370489255606734,-0.22237760736413142,0.45357143266450567,0.0022407218978226107,1.4124749586976628,0.2057896148935214,1.429795400046558,-0.6256202647033715,2.4529055783520866,0.210671879043173,1.0583843172087204,1.255292348700259,1.074259420283421,0.18074564834416915,-0.6174901176432387,-0.9495430078341089,0.21826798138083148,-0.7928841652792669,0.8242409085266111,-0.16603124886966084,0.7234178542403311,-0.003811669973084053,0.21260933949241304,2.532179906097491,-1.613306982114538,0.29545397101615456,1.2860087492465573,1.9870297636194725,1.3827348956708367,-0.020015732704283716,-0.9830240895552405,-0.13775180596018768,1.0380193402759863,1.649962986773618,0.29837272061433096,0.6403029906451233,0.4203828237343703,1.6894819548804298,1.3092059253077157,2.663673553678449,0.6544409296885167,1.7336223658589398,1.6278439036481958,-1.341051224556294,-0.1918162121971292,1.2742011882352313,-1.0204077107788314,0.013416219093407424,0.28824760115841613,-2.2303795681574132,-2.139418881752136,1.0735887766316698,-0.10668422954156122,-2.352380257141572,-1.1954470561149282,0.42974415801560334,-1.0166296991097887,0.6716751924736123,1.211906214168675,0.48010710649520794,1.0026889143431734,0.20386979494156898,0.7093406175632133,0.8569277351339007,1.1111836228707432,1.0518935459529086,2.5744233279958135,0.4574440680649368,-1.6142930928615105,-1.41161673272042,-2.3042857726491333,1.1334683132760537,-0.4178176508794826,0.20619858097720872,0.07113909204434668,1.3753156638838149,-0.14875045917204532,0.6883241962915343,-0.7886596978598411,-1.3529885566973412,-0.981369872004268,0.49210383568661464,0.047329026755692005,-0.3899082753797884,0.4804814103552793,0.6111144637793882,0.7055987456080378,-0.3666559494803432,-0.8289807099496159,0.4689985587758179,1.3668205230381025,0.9495000911294731,-0.23928790270787553,0.32718477069338525,0.7220586142811328,0.7030377245304663,-0.6695584852032029,-0.3500625997242777,2.2025720431832734,-2.0190734863644533,0.14368705974190674,-1.8303052406117164,-0.1765234793491806,-0.5337327356099038,-0.04960550043327662,-0.9542438578103575,1.7641238223468894,0.4603058250651408,-0.6232201943557429,0.17594784313861409,-0.7050968071801738,0.643106119179516,0.2769900275550611,-0.5826222036184899,-0.4850600589310432,-0.23046847545474478,0.33526458372358425,-1.932208900815635,0.4661500878885207,-1.0083854978008282,-1.5504799936607991,0.655138369085103,0.326502966437553,-0.6803594840663182,-0.38222130512635544,-1.8328783857356379,-0.6384868066614177,0.25422663264265805,1.2830814478317,1.021503981297684,-1.346905038641242,0.235570632211253,0.880177245098617,0.16849649192394184,0.5884848492532664,0.7498773192786578,0.7469672239726876,0.022509063333008377,0.8826475401444901,-1.472383797657453,0.4090456288206244,1.086400720577326,0.5056829079994996,-0.5488050474881913,0.9281229112829539,-0.5530812697285388,0.9641371861878403,0.31970716484896566,-1.1451793715472296,0.2851236061713076,0.6898889171001501,-0.9314408813095645,-0.5496309603806364,-1.5402995233866121,-1.5376539145281842,-1.6262287792410683,-1.3934910986312927,0.40640952571269773,-2.7770348170512102,-0.8533411446263999,0.9924181244592118,-0.1818624374539051,-0.8796961613259963,0.6529327297683838,0.3786796173212465,1.412681597579775,0.5986591064083567,-0.8872668396780137,0.6802436560613575,1.2067045999640154,-0.5657494978933355,1.0117823884407564,0.15754147053720066,0.053784429335613906,-0.9641837797220874,-1.6564283313553685,0.8479945712216731,-1.569897180450807,-0.9528360956764881,0.22432892433409773,-1.1117352253513582,-1.005447300181621,-0.12220761354126365,-0.6522484625332149,0.2509893265496781,-0.637609887997866,-1.1410279325032493,-0.9574828676105949,1.302067867675737,0.46319186108820565,-2.9554076041159014,1.3000857084930744,-0.8119781986443705,0.514614122157165,0.9472144850359079,1.1047843284856504,0.3451146442075649,-0.6307479107509266,0.6691396304643984,0.46635358137448857,0.7966345719011435,-0.5665457461616346,-0.6491260495567491,0.5243801971069898,-0.1575953682057646,0.0877794153978347,0.14536547792529453,0.450467775843821,-0.4518314750001564,-0.14490904032163326,0.27811754354403545,0.43463017222106193,0.8034863163637167,-0.5380072489148705,0.0886231340459287,-1.3400864005874922,-0.4678097944327438,-0.10886260771106045,1.5313727855874961,2.3980201376559864,-0.9092221837498766,-1.0406266426745328,0.16766566855640883,0.3039716807272011,-0.27292726247089266,1.2758712874344087,0.351214248538083,-0.8054408283954939,0.8412769229389715,-0.03207747171732456,0.5961682964641603,-0.7698548080838662,1.0921260224635785,0.1000196068542903,-1.1266137794253714,1.6812631534717324,-2.807694295484825,-0.9687068668862195,2.5531981592033692,-1.3044928371603035,-1.328363453554044,-0.3801972886469155,0.1402886613187564,0.7725894561543406,1.5213301906018593,-0.8913699992433186,-0.17637130336270304,-0.2771821915609331,0.32579257419298546,1.1139690794020465,0.8100323733754927,0.4984084101753223,-1.0071670997930229,-0.5238942454387476,0.6176423666705405,-1.0890799248770808,2.0103724473863247,-0.9596397983482851,-0.7092449912745461,-0.3973853264909737,0.4333221268563511,0.07119289160735298,0.9783937901267411,1.0267022551002452,0.24284511184297822,1.4878791767568094,-0.8880492977878008,-1.6666452247651882,-0.6288106139363036,0.8799628725965462,-0.36922494192488614,-2.3788399274306253,0.8368507273915646,0.8104129581595255,-0.2621874261009385,0.5844072727571259,0.5276204415928326,1.4229439879261447,-0.8224900473561877,1.3705487293528351,-1.668475899553812,0.5410124154962962,0.26393272183145633,0.43081703250066833,1.5212908700723817,0.610992071217926,1.437656991246654,1.745427584726215,-0.13511587478721007,-0.4851553673638188,-0.2063524285433721,-0.6068812050372184,-0.12711111819400547,0.3208835796220087,-0.8319388199344677,-0.13019679724879313,0.33684919696487103,1.2345329592832701,-0.03260370993279673,1.399312854971566,0.2294027881409153,1.3432022545564428,0.34181610696587794,-0.29579769000246575,1.1223525168871826,0.36674768058877033,-0.05629831413713865,-0.4755119060632546,0.368926974374839,-0.34829765438523014,0.6087762571565496,0.5106326971253817,-1.9755785873837968,-0.07263374742989322,2.3535777608099013,-0.39371181494765556,-0.2858251277433796,1.1836283161802754,-2.559679369565986,-1.9327464879787082,1.364484999955781,0.345136068206051,-0.5654540795541765,0.9277241965376405,-0.1583795689951481,-0.0019281706050055755,-2.365167048352944,0.2479512135207148,1.1581673873914249,2.5438355194647913,0.72940132051452,0.45411982331626294,-0.5416047053736475],[-0.5271071171188499,0.16580551272827015,0.16924486441071335,1.069152193635677,-1.1308707050730482,-0.6155667515967913,0.2342667894955982,-0.9961237259205348,1.5932252029232103,-2.3559164987125936,-0.7884862627004923,-0.38727318772775216,1.1809658612185208,-1.5320660369366677,0.7180861830643824,-0.3712251752290911,1.563808097353657,-0.5787360173678838,-0.717645115268114,-0.1408026451690846,0.35070176329229974,1.8376369822567569,-1.1696308724824742,1.0873045070582796,3.155207037557516,-1.275584651749264,0.387146722860883,-0.7293938587049942,-1.2826159705395315,0.6298760020541542,0.9932597592903523,-0.5805127812736102,0.777244230920128,-0.595062964114806,0.11155552123520401,-3.363014417629075,0.6294301333449099,0.33967946587369485,-0.25710420789615024,1.028702983284529,2.731821843909829,-1.787041371359891,-1.8188688264133746,0.2998318180559065,-1.1858855047780863,1.98717023498154,1.3397949330294214,0.1920073873937874,1.4897536908147264,-0.45813784765079474,1.0054144065772608,-0.7770762835675271,0.3579393574392294,-1.6151624498874686,1.4283828766653441,-2.8114852235915184,0.4352084187253978,-2.102111231620512,0.9153485226925381,-0.9121664913540382,-0.6590708785881914,0.4997542309545922,-0.7977736110910687,-0.8084002760753579,-1.7719509149990182,0.09302512559321743,-1.1695672373265376,-0.01803423204011573,1.2123709098374698,0.9534928947223381,-0.11525864983146364,0.9874056021929023,0.6940593388419661,0.04249815794373374,-0.9699666108414164,-1.2498214999669133,0.46452944690571624,-1.3564293377247754,1.1155990362848678,-0.3270986454356685,0.2508034690902472,0.42846147692542413,0.20200288703376207,1.164378415023998,0.4558625454478049,-1.5215859314969957,0.29343184670831046,-0.6808075600274083,1.7972390797866538,-1.0844543783661431,0.9629474658229101,-0.20323001182516218,-0.7072536010343723,1.810561956970981,-0.8357736894905808,0.17453848726561183,-0.47790474513037884,-0.7907471594496271,1.1630035758912778,2.2777614598841143,-0.33923482199718613,0.06762676047494795,-1.163962635165005,-1.4307647376084394,-0.6048369714736241,-0.14937682155138093,1.2512593418011753,0.34670659723746333,-0.018878824247982793,0.7401064615709707,-0.5769596904565754,-1.0155425607221877,0.9253438719337217,0.6495298807540424,-0.28782653537555947,-0.3719347490969156,0.42047987508096374,0.20510914915662937,-0.40621606131808363,1.8960781091206533,-0.39183937261393115,0.8858110805860162,0.7689566057999973,1.5555036116038894,0.8966219547665754,0.10402025232036044,-0.2236453841813325,-0.32033941629765933,0.25078647155933537,0.0931163547372716,1.2698744081294504,-1.3922306291044622,-1.0081874253152185,-0.34289140732758155,-0.22700385065334966,-1.114118462737674,-0.4082843774359819,0.37312275712649023,3.166398742986365,1.1141774377481375,0.8067337022026086,-1.7997801091087848,0.7193630965314521,0.36591840493378736,1.812270504266758,-0.8578694924065728,-0.49335873539509245,0.4451569325007972,-1.4909292944208459,-0.9134309225033374,-0.8916078143531119,1.1843292504482963,1.4054842173597104,0.17564023789918357,0.477104012263449,-0.175095828190395,-1.0435968557966466,-2.1958111581998523,-1.9433348436808293,0.43914247069789386,-0.2999429581194275,-1.3552582282654462,1.1155324769570443,2.227424777518323,0.7233925679054674,1.1997994561281082,-0.21018259072444323,0.8451193633562661,0.30906152372332973,0.4781914376924221,0.28291139705679397,0.6938677563390445,-1.3969133362686403,0.10856469095625049,1.2440782506929051,-1.8982857160682467,-0.7410188191824095,-0.26609079702052457,-1.4668314420948574,-1.9283313653502032,1.0262437916161218,0.4609311061604483,-1.0365284367983718,-0.29700797754699887,-0.6087431396887603,0.3358533444766889,-0.7754117912057211,-1.6395436911618797,0.05651403774882281,0.748154698294423,-0.22683130106274027,-0.3423429332454568,-0.1980810888783425,0.41091173493839,0.4744599671850765,-0.190562689795706,1.8661210671916137,-0.7386942437690258,-1.51003055231663,-1.486216831067144,-0.7465942383829304,-0.06770146845322403,-1.2081099667536401,-0.06527235422603835,-0.7903372852561015,-1.3053881238785272,-2.407712713418388,-0.3769444430397784,-0.1878660147249389,0.029963101893037487,1.131107624595072,1.4125005081581485,0.561343957818235,-1.9773918120892564,0.3364943134662422,-0.41097732582144836,0.5139302452247506,-1.4023785602139935,0.32523976880510347,-0.869100606911846,-0.38276890040652695,-0.2658635068263207,1.0380368507843825,-2.6508476602057787,-0.8628461954259224,0.7443575944994058,0.15336243088722126,-1.7348976516216557,0.11932811576273603,0.4531444214334078,-0.11751399918832274,-1.5677308215334607,-0.9069249155617156,-0.7456226863086498,-0.33475953280740156,0.7172792589799216,-0.8378394322905488,0.22321978528052835,1.4882972593624033,-0.2458692084966151,0.15685178192057286,0.523492119888007,0.6996285858363926,-0.9515125446796304,-0.9236211868697672,-1.1070885678151527,-0.339203810522004,-0.6761620000635506,-1.1109581966772388,-1.431212022215359,-0.6540888554678322,0.5448499564219711,0.9165801836170727,-0.20490321643514522,1.3344589515729084,1.167560801746683,-0.5099311107668784,0.14767545757410913,-0.9580644607571704,3.650700815524295,0.23923360845306274,0.22257045253982963,0.42095402879427996,-0.4871611140108015,-0.2904520719881758,-1.045155294425724,-0.8613286467343501,-0.6529230830845362,0.19802190783563992,0.5444134426393877,-0.8438485278669831,-1.1385833095112197,-0.3642956736065446,-0.8932398173829059,-1.2951938990438463,-1.6549173822017544,-1.334164802370048,0.9758527906277947,-0.1596499063824261,-0.48092112379469126,0.06491924916699285,0.7189023519136926,0.44204858330907587,0.161736210655231,-1.5144300021181663,-0.08111927350529877,-1.3846303301130003,-1.8204474812558382,-0.4301785105894216,-0.2631592598035338,0.27849018213021437,0.12821606681703424,-0.3195475751553221,1.1433999822305052,0.4415325868323164,1.3812075129820571,0.34398064824942276,-1.7519618028283084,-0.7513718209300477,-1.0634369629187888,1.1709461392414908,-1.4077177619304158,-0.8292785145506976,-1.1034276410353605,-1.609036697013871,-0.050837195441538925,-0.712478344177018,-2.1956633716433243,-0.6970962494490439,0.8051701478665121,1.1437577353324704,0.0655317927361688,-0.7317770869087318,-1.6816091906070574,-1.6185352367245192,0.8348269845765032,0.20426323709536137,-0.1544051148339708,-0.2683027314795617,-0.04026877961511772,0.713992021079082,-0.865099531055072,1.939153954121395,1.6925401950529624,2.4416129111588725,1.7176875753821803,1.0206190074600066,-1.1432429411995013,-0.4251691835541316,-3.128116893924912,-1.339682704499138,-0.3548309200389898,-0.5565918285787367,-1.6521980423153848,-1.2670322454226555,1.1825500691588187,-0.43201682508811934,1.6395655956095814,1.5866390697782558,-2.5351323296135155,1.972068588285141,0.013047935179785322,0.7021022199714947,1.2226118292872474,-1.4312633122173255,0.6516918132935374,0.10503729118532848,-0.2442950432091511,-1.2254678220709876,0.1947169456824713,-0.15855738030232128,-0.1738800280124007,1.2336889955815062,0.12649260562910158,1.7882106652672387,-0.963806611923382,-1.5024671473582123,-2.480238339902222,-1.6351607682135025,0.7150881724163823,0.3903458371548412,-0.09949189435699844,-0.9726265302499936,2.130557845655387,-0.17556497604226806,-1.5759837671615122,1.4937679994880333,-0.20153697744132792,0.5090811205811033,1.0719948350941693,-0.20378585539358093,-1.9183190430598729,1.2332100519661233,-0.43227024329418073,0.18160289007407984,0.36149098674834107,-0.01781258487403944,0.7847532044156346,1.4168353019837103,1.0510436062801518,1.0252838311499004,2.419089761326714,-0.30822416751679566,1.130850718722032,-1.4076957678572481,0.6368269738511172,-1.586051031294796,-0.25417430273636643,-0.11692563898663774,0.4738173379516021,-0.10459568822131787,0.23662813729582222,-1.6008027120451458,2.697400632544469,-1.5325516339123058,-0.15748678078513934,1.4101531260428324,1.0696489785049355,-0.2975821078396627,-1.032305709213983,0.23011101235705786,1.3994601101563722,-0.5898611080060762,-0.05976852124197859,1.5159667905528291,0.9999178880320475,1.4089970086123715,-0.01413852364563261,0.042174199778673545,1.222271553894252,0.15544292026456427,-0.627728885375343,-1.089298697325727,-1.4650404060516309,0.2428930133282978,-0.6037865012476226,0.032366017318944236,-0.29196122408632247,-0.7468860211223882,1.3725463332937586,-0.6970079870417217,0.23517408406365037,-0.9556645562555482,0.38206486999953837,0.7513294693276718,-1.1845039074547452,0.15404980231693235,1.0406694025852599,0.6216301785957934,1.6825824948412031,0.2628689991648857,-0.3714153803307112,0.2893975977694749,1.2237753332118602,-1.2882208124944798,0.19279782023088973,1.2507682179786892,-0.04962317083097619,-1.2501248590989944,-1.242965444431607,-2.367867103356824,0.5705643759669329,-2.085164364896559,1.4573474731430975,-0.2179899810586323,-0.7922055039698387,-0.3053116476109763,1.608586003778138,-0.821323318860031,0.6043942748913791,-0.9454051825932943,-0.3310776102095189,-1.9389467986675126,-0.4637214922806068,1.2976425165170806,-1.4107237504038312,-1.2538978483502798,-0.8345651072287167,0.7129913950942456,0.05451591718973169,0.5284153706950997,-0.3488545640893282,0.24976941243573228,0.2481899888139744,0.05108318958352392,-1.9060717564459928,0.6199474392295747,-0.8287731853925068,-2.2710011330266275,-0.15520828905809936,-1.3802783090169846,-2.154666024265511,1.103334358666718,-0.40926665276702984,1.110377178578335,0.29500290427098336,-0.0870577606076825,0.6460536725965399,0.0806282142845187,-0.05727531988987691,2.9349780573077333,-1.804120321523083,0.08212851505340198,-0.1473965851232189,1.2190996882141096,-0.759203265905978,-0.33905887703169624,1.4987899325299736,0.005328914394074534,1.6633265332479905,0.400871169312932,-1.0186613903654396,-2.346861322152719,-1.1042850829630118,-2.647808650554717,-1.4299310336000046,-2.225391185317798,-1.1631030593936817,0.4349806764883241,-2.098715974933344,-1.3437632076110828,0.06603787321094659,0.3562389670408226,0.7360898088626654,-0.11428057827300883,-1.2925439475567118,-0.7426872319379485,0.5218710130392458,0.5837679603655908,-1.8598721758081398,-1.7564497420054583,-0.7511086286193129,-1.3573225326749596,-0.5873245570728324,-0.49920931143236935,0.32054435962204925,-0.3966242494653833,-0.13563630431348267,-0.10925772897741928,-0.9784814919551814,-0.5584992489815283,-2.3116275868923775,0.19105001880830488,-1.7545305419154191,0.02182010499167586,-1.1756528262430928,-1.5655186476881349,-0.1231128457294392,0.29013226325919694,0.8589873451405123,1.1627841183164367,0.6490100536892593,0.33757802270555903,0.16138622590527563,-0.9336082662027102,1.2888455310822011,-2.006468656326321,-0.24217650947036581,-0.3908241562142945,-0.8326310753496836,-1.384294769438596,1.3303689194270625,-1.6211744157381012,-0.6818581756924373,-0.646832678005717,-0.04041491783461078,-0.0449363136369081,0.959782763277077,-0.4243324652141114,-1.2607812023791705,0.3801778330349467,-0.2840031185294454,0.06818421252487185,-0.5226122019864646,1.333362576376366,1.8272691508998036,-0.20788528140040302,0.6876114804367359,1.884152014619146,-0.5280015823126012,1.6635752444968779,0.969212419184636,0.763349564489483,0.3507331132352722,-0.47068390080933775,-2.4084560060700073,-0.32293061102475656,-0.03376670336118189,0.6739357991491629,-1.315252923831021,1.5706609623067298,0.03233244668440387,0.1730602872246455,0.3677710286908739,0.13312678435525888,0.05570246417737942,0.4732402356329793,0.43628311004173653,2.383789937461918,0.9783383764336642,0.7979511708140026,1.0958195562050503,0.6955791666778216,2.1681612355049045,0.2551934807855557,1.264855156696916,1.5918776001694535,-0.2330025707810557,-1.4922065103142108,3.450831927787349,-1.3760826770942955,1.2326171911559463,2.4122487095536402,0.6214544878609937,1.008709165344634,-0.35040493344902135,-0.21867337895325306,-1.1110447607148866,-0.423547097341014,-0.32982016496886435,-0.06479179665413569,-0.32118603168560844,-0.32031717922393355,-0.3231158020268092,0.904454289520124,-1.676993583504074,-1.7894219950830008,0.541391966352424,-1.6141105749808546,0.5057063464239739,-1.522702636416815,1.435455370298593,0.27069065918241014,-1.4996380067124286,0.13981370975495913,1.6493298072677507,0.6227541267386171,-0.3090547032117965,-1.965138666772233,-0.9278564619736404,0.2794943473446496,0.91245528329519,-0.6562053539949958,0.18158279434223248,-0.1584972885429212,-0.2469814030404722,-1.1240070908431918,0.1607345541208758,-2.7136262016461936,-0.6324351367334998,-1.1947475328280446,-0.8795285886877083,-1.212676012561182,0.44355887222912965,-0.14846527592440642,-0.7344851163464814,-0.22748884161220112,0.4982572770862297,-1.1986013478876052,0.26714236060204416,-0.5849460005850812,0.16406249918030338,1.7813949825521835,-0.5345282389318641,-0.10497359440910828,0.913761344836209,-0.059504746696890806,0.7198226960970573,-0.9849287073154929,0.7157233526993276,-0.4372542080701701,0.19377045583641034,-1.5144653640490089,0.952041326759972,-1.1864041204263454,-0.5752307632451649,1.0462237978065019,-1.6890007231735156,0.0911300106381849,-1.5562307277533216,-0.6418964820220502,1.201170261395316,0.42384403577353535,-0.3422980304018936,-0.6579522069256238,-0.7136993379528314,0.5186245716074275,-0.4775991188245104,1.5059417580896146,-0.4627082613585015,0.9478100334456547,0.5469423469551254,0.4875779393626239,0.7507281849992979,-0.7626129618444452,-0.5438406532077177,1.2946531903620377,1.4376014784481492,-0.7740009905996058,-0.8676714799777777,-0.1722795738704912,-1.0202866131571262,0.34003457029612016,-2.3404848891303085,-0.22207149383054592,0.3827374948782642,0.7210667320149958,-0.27545852207192856,-0.12529930039130535,0.2268018851793323,0.692198328596391,-0.2748013128600622,-1.5472306155350313,0.616304885111916,1.1060378521069827,-0.2688559926083922,0.23653032137989946,1.705358167689941,-0.9079600634536239,1.2320146532687413,-0.24242279477043222,-0.6129359125854354,0.13634819054575592,-0.1582558479593205,0.17583273523615967,0.48537139328070633,-0.9159312512352281,0.2762815955491593,1.1158964641457148,0.384397524328846,-0.7462808940543044,0.3082553156167203,-0.03283283764647107,-1.1435184230382518,-0.5607511533770455,-1.0000394534985992,0.19076652920241233,-0.8403261913626773,0.23675534832126371,-0.16616484437728432,-0.5109948341125801,0.06223003893688695,-2.2861238275425455,0.5121902602456014,-0.2831290499108743,0.34354959779141914,-0.21277502992103847,0.9917928283188138,0.027277197934808657,0.2059027542490967,-0.14201318477596012,-0.3458067467017147,1.0503656764456508,-0.7756751527112318,-0.4743441484167023,0.7537841392099555,-0.10221902376503986,-0.9772347836699564,-0.4377448919253239,-0.965944732029475,0.732639537572039,0.6410339444836877,-1.751557147811224,0.6479558818538841,-1.5697439697323452,-0.8056756117921492,-1.0830296877446295,1.232896187187169,0.8424766674751439,0.18333154046958733,-1.6393808262061327,-0.05302500566519465,-0.15926713739695472,0.695085942975424,0.31424152724976884,2.3409543976427725,0.4226137608252498,-0.49542903878734657,0.5524267674945083,0.15300471144022146,0.5736629518543267,0.6291411836164139,0.37758833431581906,-0.11435483775185988,1.6639597239603319,-0.8760940827901663,0.05685929298053744,-0.17955622173253197,-0.37155902788283,0.7895532829145151,1.7177321364598888,-0.5872085011573381,-0.12676005566268872,0.15036748354150917,0.04216132496759021,1.098758460686314,2.026066265251397,-0.8457451457942281,0.15396909425213381,-0.1388147693066905,-0.6911887796210651,0.46044047467776145,0.7314587107208544,1.903940286693866],[0.6859951379398893,-1.4294982731862116,0.4128677655813004,-0.8861203696837535,-0.05385627481838835,-0.16014615021668166,0.20439204116098814,1.1740480559851754,0.09180371954471982,0.38620531034317346,-1.4391436723787874,-0.6885940943556582,-0.430967665237256,-1.1106447897653733,0.11769225031764166,1.681783114751225,-0.4851589965939849,-1.2650523485107508,-0.06581759046089694,1.2255566829005409,2.012665159427519,0.9071621994854339,-0.9221152150724247,0.5650780501874614,0.3202310888205346,-0.6418268037205281,-0.8243127288297859,0.5270808651765749,0.0593791200858238,0.13471513479132805,1.1392778486752397,0.6590774599310144,0.3182318899040154,0.3794395601507927,-0.7060800193397495,0.4618131145445692,0.2628068335775569,-0.7345040682376931,0.41243280505172836,0.19121120789516804,-0.6747572887550204,-0.7900045780380219,-1.8629219271713817,-1.3459435363875285,-0.5242638439905146,0.41719507017176144,-1.1546105285453403,-0.11701084437520284,-0.11809158522854363,0.5034787882766087,0.053634134735599366,1.1072811361652577,0.34960382772971854,0.8707843824915665,0.7878878244457891,-0.05229515046209947,-0.2561368862478805,0.1622719341505121,-0.17368528639502845,-0.6979183416547885,0.3628253234483989,1.5083521786576375,0.6522827485570026,1.080221401394585,0.5551374551579571,-0.621443210364067,-1.0273007507249217,0.691562016921266,-0.6682323015378404,0.1852784783726371,-0.12633914797079368,-0.8843719807843011,0.3920692125940326,0.004292634435872119,1.630508188505309,1.5821553361710978,-0.5702572380640636,-0.49666939615480166,-1.418246559922707,1.3197945911727709,-0.5871462600091042,-0.6349445706956254,-0.5833225991687395,-0.41106841002865124,-0.1316230044342711,-0.43640358410063146,-0.24531925834787557,-1.1153817161889488,1.4214464015248,-0.07856633710244833,0.7465481138626398,0.13592410830890198,-0.6701542804380543,-0.07476203463094225,-1.299193521162517,-1.6264834971193307,-0.27256919091175114,-0.2692336897939891,-0.3625212499972446,0.3373914448312387,-0.7608365050945725,1.5640636876372325,0.894065401108154,-0.6501833777917372,0.17160118580814485,0.29322717822740624,0.8333423764613329,0.6670496914265818,-0.3452779671299908,-1.3470480460176213,0.5977724947307083,0.29162226075423514,0.3665706512953913,-1.6502367549871393,-1.606646167883308,-1.1878435224523785,0.6880705249408169,-0.12480188538453849,-0.12585333225971831,0.4938288872954536,0.36331313712670577,-0.3087025946338364,-0.2035052659230928,0.13268516065404992,0.19063674691975255,-0.3141853807504426,0.40028858822405466,-0.696795247462018,0.2825326717163882,-0.5610372093920839,0.3149128473998135,-1.2111402419479935,-1.1316016917318266,-0.29467981443599023,1.5778839137750835,-1.3493538728857555,0.957332709215476,0.4708602207564713,0.5940673461592333,-2.902315995978898,0.4399349799044622,0.26757239697154395,1.5621492415845202,0.3525646538973871,-0.3461386648224648,-0.26873408467218024,0.4569897199473493,2.130215634828363,-0.5385535699337911,-0.7677406914716574,0.9195363414023153,-1.392861743993745,0.040343600345651945,-0.19339553959006006,0.010529744264172412,-1.075084871778666,0.5707152447186576,-0.09671242689599205,-0.7573617055988155,-0.15175097685461836,0.8526408102808807,0.2583167767658948,0.6710231696547936,-0.9680128485183487,1.7046050354630027,-0.35659495079026005,0.5911889441437008,-0.49585574678499605,0.6153255358089711,-0.5064779452531708,-0.13774846695492965,0.6741122447515334,0.7479416022556925,-0.2758751895183219,-0.2516747928566743,-1.6500612322829546,-1.2499319739180221,-0.42068195473313214,-0.27487299184909314,-0.4006599798584994,0.5662013062693664,0.4926046385464541,0.9526439840283775,0.6242981706396924,-0.2598281878247949,-1.8797391163371313,-1.1024011505975366,0.9054528882640114,-0.1950586795324848,-0.9473132101658838,0.3541202159357981,-0.11255626761905986,-0.025657049110620656,1.6414822767043893,0.6234885667857359,0.10805737319690148,2.769822464312557,-0.8108887833248977,-0.7078433044999817,-0.10204297634593977,-1.8128495328442773,-0.6930526926012098,-0.016404222778263592,-2.2708995635415508,-0.5046769044304011,0.5922676517782789,1.3748151263259671,-0.31796334798588255,-0.6003015956392956,0.24168901605804965,-0.8877474115153635,-0.06098133128056731,-0.7343784397498387,0.22138025677777376,-0.6297375078785361,-1.4963528777906974,-1.8123113676980245,0.04988309573858457,0.6239391911358496,1.415361124585277,-0.569387315687752,0.4241589924640295,0.07225131960705283,0.6627279805452189,0.14825930876878096,1.8782824379178937,-0.5444118232221037,-0.4487200277566821,-1.7522366162759104,-0.2857471545302391,0.3879859078721525,0.4332739762864915,1.3208620412927985,-0.7100726135188902,0.07362911860801094,-1.2586111896962835,1.5182876493079407,-1.3063864338979294,0.9240667081868289,-0.4031615140220541,-1.164776130094787,-1.8590042922625611,-0.621483269089259,-0.37372364162773497,-0.6674265601194963,1.0023149516996324,-0.8447792841721177,1.3047898305153165,0.8463321610486503,2.940984390250002,0.6033770722275513,-1.1256189344106042,0.24634450468791874,-0.49192857027204534,-0.15437460425843916,0.23477509147185996,-0.8217445557680849,0.6681704898167454,0.38711949133274715,-1.1168957414429086,2.2236555223446914,0.7120439217899028,0.7050496424796734,1.076361742782353,1.5581602667455647,0.8037804392405795,1.1017821146929814,-0.9175449809334131,-2.547178384514428,-2.133344512086809,-1.8405441800378715,-0.22898097455189317,-0.8744194337798932,1.1413133146386623,-0.561028326147353,-0.33359975730072106,1.6080384226607547,2.7419285888555796,-2.082212465180642,0.9408004355923434,0.324843236476262,0.6996374144313441,-0.544599573130433,1.0432993273790436,-1.325965795836121,-0.02431018955428178,1.4455905561186921,1.4708461488786817,0.5314408130019966,-0.4262230308457136,1.543250416514612,0.9633884885289489,1.0936490200708642,1.714105204046402,1.891783661690069,-1.2159386372799355,-2.7519762756227997,-3.044425905246867,0.15911663897536835,-0.8331192824611233,-1.2821919455085793,-0.6813520991548317,0.6011206285550443,0.6141125369315851,1.1568419336950453,0.0039979545087287325,0.8840783882890695,-0.46277603913523874,0.722223369762885,-1.4710040912969458,-0.8540176092128036,-1.331920137932073,-0.05135789421659098,1.1937940225652017,1.0533562648047778,1.493124881918297,1.423457326532493,0.8904250710234405,0.8300542455728053,1.8823807333339082,0.25328317310201376,2.4069883652759776,1.436408627642156,0.44640261673817405,-0.9574423063222757,-2.2215433345611197,-1.496951816649855,-1.9868986559614372,-0.6565945687727073,-0.9429598373917799,-2.24883506862901,0.04145751983574269,0.20357957878884891,0.46784521361995784,0.09509659849143477,0.6767950264025918,-0.4562057963051886,0.43706035581390124,0.13989213833381242,-1.0649205718428512,-0.9706124013534254,-1.0548557087333483,1.5195899017835304,1.832982320370901,0.005011986120724392,1.9716018845127783,0.5231386289318743,0.1347398944918594,1.064940256287086,1.7244385178003636,2.780195363421274,0.5604200534100475,-0.001984037786388783,0.15285842507676228,-0.7545616467844922,-1.021300056688064,-1.0044564981504114,-0.7054809686802264,-0.669278992245044,-0.45943733146538934,0.07754560976062279,0.1599434888483206,-1.8087272679891935,0.12703798573028313,0.2929924071592543,2.7130346408516295,-0.08432376772994184,1.0500794033187661,-0.390787143105302,-1.8709364543829505,0.399824496019489,0.6074361578087799,0.17184799492336017,0.14469370148609148,-0.26538588249070877,1.7210472834431485,0.6786163791119203,1.7518199835913493,0.544415027946582,0.3337826546854023,0.510273326934115,-1.9925729188804868,-0.5800587175352078,-0.18993710050452975,-0.4627903583892649,0.4771417822010122,-2.428375406565387,-1.931438993991419,0.09580118606652903,-1.6159673708066702,0.2126672347195353,1.5543286943317873,0.08165306671145031,1.6512370453198564,1.366861397337662,-0.960273006407693,0.5650114258683071,-0.7741291335904246,1.6154215947214297,-0.7020441367761456,0.08944935831952101,1.4886807946558505,-0.115848451586791,1.8899125502535408,1.1922966272589408,0.9045349851590999,0.2825390161998406,0.7214741992695206,1.6958430649840701,-0.9242296397296469,-0.06246387871126142,1.4895139257422338,0.3760933359860752,-0.30922542370279466,-0.21638228746210766,-0.07445563259779445,0.03882968391866331,-0.8200424365447452,-2.3081617455536936,1.9402842032128178,-2.0045638182251615,-1.2284502651610554,0.2654601224686927,0.17571085020002436,1.1534028247617023,-0.5713524979377356,-2.0291502142754054,-1.1890879239171517,-0.5838507021351298,0.4825912334962902,-0.1737339447832441,1.3162978560827379,1.4240267797723314,1.2250277812745458,-0.8877886039002983,0.1268320016107346,0.4944780622396847,-0.8101714672448945,-0.870628068372732,-1.5776779480518774,-0.3430704009759809,-1.308136579905238,0.5566711329796149,0.15426648034411905,0.015074490504102844,-1.8977844598012714,0.4289836131667088,1.0353868823208487,0.9968922763217438,-0.21197966302793353,0.4891612641641548,-0.035444016291560985,-0.3421470649491674,0.20541885755912995,-0.5796281137712079,-0.7980465612768766,0.4102299576454432,0.015968480749190096,-0.6257939737863266,-0.5065670250220646,0.6247034034814074,2.5371529381773406,0.35522536429293294,0.914621564484422,0.13970095172999109,-0.9764060383569793,-0.46315436920884295,-0.48512488337185294,-0.9186003385113151,-0.11372277125345365,0.2736840397140937,0.03535156114542501,-2.5493497528733076,0.28904103102793616,-0.1408304172188674,-1.0652645988208609,-1.6771230884142838,0.9644055334068337,-2.1842366246392793,-1.5214136969855703,-1.2194314497242138,0.8269319748828109,-0.0842942490040873,-0.15062245649243816,0.35257690349369925,-0.09894393727125296,1.3082673798323334,0.17609481635758917,0.41107782279462945,-0.34432631992709195,0.624452957818414,-0.7399847472662147,-1.2286659890042102,-0.8624492537375502,-0.24896830581930376,-1.58385629298812,-0.8840730811541395,-1.3546577630767394,-0.449449403037829,-0.4343917563341062,-0.0011475213935160722,-1.0713318038732687,1.1114028066617188,-0.18223780614018098,-1.6786309455574036,-0.09091577919581481,0.22413502267859733,0.39752452522608467,0.4152585338221058,-0.36715240714495245,1.499458467041697,-0.5957542432868347,-0.7096082256850758,-0.04897723398914664,-1.1531881687966592,0.274347841116123,0.6431402554795695,1.2074949432958206,-1.0864324743679659,0.03094026188206237,-0.3979981527494123,0.6879461609209582,-0.9441045418405175,0.7153053339297367,-0.23051985706866865,-0.8048720537078994,0.30325474258105967,0.5436496925089828,-0.4693881814376934,-0.46011522599090576,-0.9681092496043063,1.6555694096342453,0.9773897027228288,-1.1214984488943704,-0.8347141527274691,0.6297930800911395,-0.5900657915419191,-0.2269838411379294,0.5999192372519669,0.23577816902394552,1.7464905493459648,0.587227889643138,1.2219766672877685,-1.786924078452282,-0.640566987581044,1.091275585377102,-0.49545638124398894,0.2538961535280588,-0.7521697360024554,-0.4740003190842271,-0.6373503862543737,-1.0663819500154514,-0.3241818343172432,-0.7575950322027115,-0.27392784909840423,-0.6960785398207403,1.1743318574053803,0.1207009312339134,0.528207193269346,0.36846098516006975,-0.09419234307481794,-1.8713533972111158,0.9399349778287734,0.38153626133519425,-0.3905398310395351,-1.0843799674196737,-0.012422886819272482,-1.179519465306566,1.1851833578333077,-1.0083067283814178,0.9414736873572211,0.3901547257261255,-0.4283361731164875,0.5092980209907291,-0.015609935455344549,-0.2038199973800608,-0.2685300227848823,-0.13599017850983006,-2.1667483804605103,0.5264325331725007,1.3333418670009556,0.7077920196787153,-0.6458127801354451,-0.17120184544779077,0.6670769994739923,1.4347845271744832,1.795715609099991,-0.6589781310078097,-0.6857710114248623,0.21595362846651955,0.43196343211262234,-1.9537781333678317,0.3101310410545639,-0.7331366339530903,0.06773723686862346,1.7252938406160885,1.1174465070697466,0.2729821776175866,-0.10664356137171513,1.021793197310265,0.6401789868181722,0.9744616440607482,-1.135788656869891,-1.1005967530397827,-0.6710039761386761,-0.9416467002874898,0.6179537356256274,1.3569788400431828,-0.28254469538938676,0.8255830972723889,-0.6555392725878298,-0.934603993794513,0.014617097709058662,0.95951637030082,2.671091501179365,-1.3748481783271906,0.7448469223372651,-0.2022593205395919,-0.4661244592036224,-1.6860264788275607,1.106134230666113,0.5238494193373678,-0.15958693440200364,0.32918133717867815,-1.807415991051662,0.20672866681680108,-1.1143731708952351,-0.10842148500288162,-0.29257670792316787,-0.07382759037144324,3.053399368131093,0.41059659708985974,-0.4829331378536322,0.9332639655150553,-1.138585670016154,-0.822974939083478,0.23119069080932636,-1.2227441582271736,-0.8860071934592773,1.7198506626812402,0.12738540385443742,0.46135513549069207,0.2643664058890651,0.19866290845209728,-0.7482675076868791,-0.5639415758898743,1.2264203846168695,-1.1149285291412325,-0.03505033757976506,0.7082606208806996,-0.8228622875172591,-1.0428189542939792,1.291125384695812,-0.6901735485547917,0.09582077085649589,0.28073088024378623,1.2173946759110803,-0.10346264032105358,0.13970690568257424,0.8218948403699077,0.8535977180554886,1.0697159561479983,-0.6612027641745887,1.4152986582145086,-1.0371205208440435,0.8623321775048264,-0.5224569891553762,-0.4202657038747239,-0.8827231411388472,-0.23326654953373271,-0.43593906738000454,-0.09012067642640127,-0.6893123322660241,-1.1628727986404448,0.22268752511382833,-1.399691103261041,-0.8864641538421133,-0.7694165363909967,-0.4114164982325336,-1.1016289025356791,0.8819279391905883,1.0353250687732338,-0.2327990816967301,-1.0368332195663372,0.04115901910029039,0.6696334251097931,-0.01386048901515839,-0.6140945203895778,0.5110083157087211,-0.8229140586070691,0.11626878155393486,3.0911269031233526,0.26986297276384075,0.3504328678661186,0.2818129981049029,-1.2656007715084594,1.1825055219452745,0.2581071053305695,0.4342761467956626,-0.08867443263314653,-1.3299213086345514,0.8795761369779326,-0.3563152311818542,-0.900300689833509,0.8688801755461873,-1.9918213207654198,-0.6488439368728355,-0.07267620388106742,0.6768878208105833,0.12479080799527201,0.03164472430519946,-1.320195968999416,-0.0608294541268997,0.9205388355378685,0.09959218575960595,1.6465081558811638,1.3879940355852258,-0.2139944409030774,-1.8143172342252978,0.3618165568700373,-0.8697658872650093,0.4972785573484735,-0.0740089865570849,0.5575598143508913,1.0034745105472724,0.40832591898487386,-2.107742936640784,-1.5127916279585896,-0.7056215332078762,-0.8770519079723061,0.6169046181448249,0.5066561245502162,-1.7158421119072433,-1.022109068764678,-0.25981825175057904,-0.7354419739114971,-1.790950321581973,-1.0478466710252696,-1.0337110800642106,-1.6067341130030748,-0.6969041808556679,0.8644488349888668,1.2488949463939072,-0.2606805219344691,-0.9515166845245534,-0.6663475421153038,0.13710442051179506,-1.3970763618852953,1.1369793784526339,0.3422657331377188,-1.3031120389288064,-1.514759572068507,0.1313204320936195,1.658724363212296,0.46565240387624013,0.17287872499001644,0.7287057427843083,-1.552068011713173,-0.8947577995593469,0.9075792467808994,-0.4684681526673072,1.96339054399533,1.0953316999749998,-0.6173877492695735,0.28343757928000823,0.00978912353365817,-0.6521139870832741,0.16249893549734157,1.0453694487833258,0.5442401020480511,0.5014928745396487,0.06399975581101988,1.336784003148795,0.18637619913971623,1.8396773204237362,0.379922855246743,-0.45218985629775865,1.119117248224917,-0.06737393158835804,0.435300235140491,-1.4582944584790192,0.24536371078620267,-1.1231084404841658,-0.1657437004535955],[-0.027613588914327063,0.2936315795029603,-0.603342634702534,1.408111540253113,-0.34762733670501017,2.2201272985822422,2.033648138502173,1.066790987302834,0.664344741949612,1.351306089683068,-0.0757415934566459,0.8610758778269294,-1.4425813610343454,2.070905926444704,-1.6059173729837775,0.41096969599644667,-0.4131133952490467,-0.4141111213394685,1.2961819649219568,-1.3113148503923484,-0.7933917021326305,0.9534104661973135,-0.08834622079959378,-1.3223689287774651,-0.6249079795287037,-0.9408802530460957,-0.6696850289709797,2.284966952315311,1.2207567072449566,-0.32501945592002307,-0.08425783937750496,-0.6841262472975954,-1.3119347028305453,-0.3563721122817484,-0.4242063600888723,0.9618517483361753,-1.3105319971177956,1.412559744255455,-0.582523354083911,0.78899106779468,0.45291974885290515,-0.24351446936448065,-1.15885987470767,-0.11246118296097839,1.3567070025532257,-1.2293901532549993,0.15921306112539885,1.6024874508171463,0.18843122950221708,0.8694722403689468,0.20892886921495818,0.1261272438493955,-0.30468052062091827,0.4013567125528943,1.4528521044113378,0.2927994574228667,0.8164578767366385,-0.6576844248014836,1.4520603753206311,0.42752654841246174,0.14889777522341027,0.14777010150313455,1.931695463380943,0.006984948413722552,2.433635393791231,-0.4268535299836438,-0.6768081661827678,-1.1110003641768005,-0.22103963028844342,0.6042285681735052,-0.36753773825127356,-0.20061855115638702,-0.17998219882614433,-0.6697962057432929,0.5767466339936498,-0.5181524714229543,-0.5361347600712069,-0.9105015315474405,0.2523718272060512,-1.7919722810370347,0.12873409503027186,-0.625300149602112,-0.8363004560184368,-0.5965244709920817,-0.31504844662689924,-0.5471653117596684,-0.371879702971209,0.28097824873480737,-0.9489808314178563,0.2894236631503442,0.34992837731096993,-1.3671166221859197,-0.09449693153208917,-0.8423475067248164,1.4932234140045326,-1.5096731183322498,-1.8565575576680349,0.8266710519569788,-1.8664674392573566,-0.11715011324461329,-1.6948986011546459,1.0560414524673063,-0.566957927751518,-1.9710680514262504,0.5955596526364924,1.5416737061578654,0.8713196942032769,-0.42717202260963344,0.8850133042639909,0.019170736864836314,-0.10653942162482614,-0.7073994922050095,-1.018267331565341,1.3225864735612167,0.4917814196961295,1.1756565613942167,0.27494948051539386,0.9570144090037561,-0.3842609480054651,0.18362323884153792,-0.07966730718191224,-0.44554285607385374,1.0345866244061324,0.3783117063289382,-0.021627697748715986,0.9732229379358066,-0.1789801803011315,-0.5363717021149962,-1.0070107788231089,-1.1810800319213524,-1.0445637747693275,0.997424181532003,1.4448214700713224,-0.8204390888093223,-0.05727425606025339,0.6661166808808248,-0.27322032740759944,-0.3269310968575868,1.2134582562342955,1.1463582353899582,0.695305712850157,0.007618498635310944,-1.2987755495825504,0.7930551981458721,-1.3564917829146208,2.4328391625262262,0.6301803805926499,1.1836470150165894,0.5805400786665272,-0.5486969900387718,-1.0911623298238566,2.1746135631569334,-1.9991871292432255,0.26489440020196825,-2.2196587825789535,-0.3051004115415375,0.2624677589042284,0.4655644712431931,0.46422471752793304,1.1170965880760666,-0.12405557971635545,0.02949628197496627,0.5903594405473402,0.9503220537068857,-2.279299320007152,0.8663705719576419,-0.5526624102343269,0.3650781101981957,0.7946987852645346,-0.44216621056933236,1.5810616437319727,-1.175981655400218,0.6254379758074591,-1.774527418758688,-0.19905315783857855,0.44071063686900264,0.33469741128476116,-0.8021151546820041,-1.0052107680824036,1.885754294117317,-0.3891588970283046,-1.473533797245139,-1.4718169330481177,-0.8532713114626744,-0.4172572864863071,1.5782595730436026,0.21373071541544061,-0.2612645519528212,-1.180047868552779,-0.2790008538433859,-0.16214830339116884,0.38400342914765906,0.7045256244091173,-1.715811509143094,0.6643160846336248,-1.2439889247543312,-0.46344997641653296,0.4191754930931781,-0.02015591253503985,0.8227646850896331,0.6955081534739296,0.9981559668630688,0.2541181826799737,0.27164902660553975,-0.09308720490063173,-0.6710916410699516,0.8434298239655438,-0.8121318770337979,-0.07232665231302506,-0.8096258490305847,-1.4745073917886835,-1.054232038773961,-0.6965300901711938,-0.2818980767815961,-0.4012639517371056,0.11186186428198712,1.6937718346264836,-0.4026106864692129,-0.246594170543371,-0.29817238986551775,-0.5053020859165317,-1.188584902680758,-2.220029225165249,3.0749104831535132,0.6837132543586137,-0.13894739647267954,2.0248102735993916,-1.886668621175669,1.6099863304301656,0.9009982678214978,-1.05139043312599,0.38383359695795355,0.11237390359862384,-0.28980765800915786,0.5232716458661855,0.7204471970951066,0.0397275344975512,-0.5093767314248727,-1.7208263598030555,-0.04290772618946152,-0.6101389604825318,0.5177288685485932,0.8299664549437301,0.730738737752672,-1.0643187127438556,1.856188492260551,-2.3864140318079174,-2.6225510462234665,-0.20357792542034633,-0.3030681909930441,-0.54449467012163,1.4734283571426572,1.7063810667218038,-1.0590689108854268,-1.180990164941807,0.13359060417086277,-0.12975331674491478,-1.5490062701781073,-1.1798476476840154,-1.443778232665574,1.2870893469185585,-0.07733641747859173,0.5922782690892352,-1.688858535612289,-1.268749012606645,-0.672649090556764,-1.2811732565964034,0.7865714273802215,0.9426609422021122,1.7936598100193828,-0.4212126301136035,-1.1506871432796306,-1.1719021137420498,0.8879149078879387,1.2031431057894353,-0.40175016833216326,0.3307887084244038,0.6511856968741307,0.7255637636452177,-0.8650290252465308,-1.0929707884376778,-0.9726352985391405,-0.6674460080054841,0.6269776432992004,0.15904521347291903,1.4077009235522056,-0.6880393927990242,-1.0889199099788958,0.21325886115470086,0.0380181934333098,-0.48926856286676984,-1.882391038009185,-0.6600748221699786,-1.5389632868416925,-1.1837195187577967,-0.7561483142641994,0.501095833721291,0.1824891226790044,2.0107742091817062,1.8253700509183908,1.112202706702034,-0.38081791005808746,0.7126507116526885,-0.863287421945025,-0.9932695435634165,-0.6188949665666134,0.044463930820597526,1.1881359078482934,0.10941463384284685,0.25776881022119685,-1.2942391143293455,-0.6522519083336918,0.13556201628781772,-0.007007584423819686,-1.9368676632153967,0.8373973830091449,2.449556752047229,1.7785457287019413,-1.4322076791253697,-1.256930852027858,-0.61806136125519,0.34018163934425827,-0.1136333114537899,-0.49242622864701463,0.31998380240419455,-0.5606463702859488,0.8412175845991519,0.6293837259205961,-1.2469507861724896,0.6307515878887672,-0.6304252439739919,-0.8795753643800975,0.2813743015730806,0.21739309629004339,0.35427431436811363,-0.6474395963304562,-1.1054403997949018,1.0552557451073132,-0.14083836522550622,-2.074162664721249,-1.893984791044919,0.3659004808479467,0.9605990736516319,0.28052112438211874,0.95274806267482,0.8059119322280107,-2.9407239803515512,0.07754074655196075,-0.359996412955201,-0.09829289283909712,-1.5959394584021855,0.6739608050196584,0.9647307492374455,0.0532371316484463,0.25995839769037227,0.6001875466539346,0.2980212937884718,0.35462331618063825,-0.1716326115148854,0.8154331562561022,-0.9686308765974689,0.3147177973334147,0.24799717141813252,0.6006338796351471,0.31215942734072394,1.0158386602872622,-0.02607485356303667,2.384482979386468,0.1177734887352194,0.5707612682206309,-0.43477626744383596,-1.2906439812549526,0.243535993917719,0.4915379710193425,0.587455956572072,-0.6763147772035432,-0.5774664516230983,-0.22012558596161583,0.3648148993598516,-0.8756074271920552,-0.09628844824414366,0.48489468579007594,-0.13143089453839585,0.11628292400275196,1.7380713456176464,-0.1256361243863934,0.055752627608078247,-0.28197957830344533,-0.3351139919044391,0.5066606352390106,-1.8884172038225624,0.11033017731395464,1.0804061364581323,1.8923538445147712,-0.9752230881776921,-1.1252537608002644,-0.8129584521031953,-0.28513336354881924,1.0079486539612394,0.24118245834091628,0.6903571880501342,-0.5055901204166366,-0.5057265627615573,-0.07241199738357257,-0.0775702996938688,0.6516897268378474,0.2570309109544095,-1.6181139084222746,-0.5596170259188515,-0.13184808433457593,1.796595423575227,-1.1155854433167094,0.43595219382975414,0.31973062546082837,1.0848867149711487,0.114348075066683,-0.7223072170699236,-0.7049049030777399,0.7690394152978444,0.31429520266648453,0.16668605706299508,-0.26202769145185195,0.22720759877970373,-0.7347827037923192,-1.1659045090302342,-0.19837642627557497,0.8068471882722823,-0.2877028637859428,-0.6366742889298885,-1.0088882716156813,0.1974959230917305,-1.9499741121926033,0.11883836258544475,1.8775156763692995,0.16707022423050263,-1.349945705874639,-0.43575622196345803,-0.3227797445639531,-0.5048565950561424,-0.42050192077444826,0.2556069996343297,-0.7124191828739335,-0.3339906887967436,0.29934731025389294,-1.7472133262868283,0.106151944771993,0.39809626641492546,0.8787299095597846,-1.724569223955312,-1.7677802324590335,1.0419029241835203,-0.8666178928009308,0.1663530312287936,-1.7772827477734654,0.2873787930539898,2.2551797844399166,-0.17808857972772474,-0.16467804348084775,1.1623576983218926,-1.9460990447187607,1.4184789216307954,0.11960399676302168,0.3236668640623647,-0.9183932114852815,-0.2613926349340439,1.7369983900676174,-0.18941319918867738,0.5169322625133047,0.4313586276710609,-0.44830607883519097,-0.07359181590687129,0.7985815392551733,1.5906111083412589,-1.319138831750863,-0.5503190480406324,0.8548733177725817,0.2098919187744274,2.8431880323034715,0.1890857167644718,0.797579120131336,-0.3283329840726297,0.2645557086086253,-0.3280429311412716,-0.46200796609758016,-0.8041892314604494,-1.1731616537175769,0.5273039537223215,0.6471463763374774,0.9743790118799306,1.9204725608861413,-1.0479823642956951,1.7510628072099732,-0.7160904717305682,-0.08633146481603787,0.24219219032035014,-2.2483372646686894,-0.3598805372432917,0.20414819554981137,-0.9769180623370476,-7.063627040394636e-05,0.3149315679736609,0.49662336760433495,1.5232543926188162,0.9030058080381741,0.8811591870652855,1.8422158476937478,-0.8812203964197111,-0.3663212340117706,0.34170244063579175,-0.14555562447916814,-1.6862060963071044,-0.1746840619119577,0.8946820761582214,0.21223513571934202,0.997369246068138,0.5195342122671961,-0.42481356118022207,-0.8541975941088056,-2.230656308515536,-0.7378348192203152,0.07924449845458392,-0.9300004073752024,-1.7741294347064218,1.467806661866212,-0.017478584114109873,1.5736895336797554,-0.10381398021604256,-0.9014613296914356,-0.6191612808130031,-0.5663672681322421,1.582905988929358,-0.5515440494443175,0.7086629173114267,-0.29301889102888545,-0.058497151064356864,-0.904480222774331,1.3381198340666687,-0.49223121531753594,-1.0220212352235785,-0.3628175886888709,-0.6869649416084372,-0.35953787119371006,-1.5942750245187463,1.504669993931978,-1.159760186790387,0.2268192378786109,-0.058525928411841545,0.2900069450406319,-1.0550436157969119,-0.31088710480871073,-0.660797059440017,-0.8329516571941967,0.717238814147783,-0.22712042027653664,0.9445872590352566,-1.0870886320026043,-0.8173419788636828,-0.6901081072659516,2.213619164324369,0.48608264054801475,-0.2882603018116171,-0.696924566765289,-2.078103317408376,2.209083874756601,-0.4509405273690037,-1.9310537589993024,0.06518333622133511,0.49494937635107633,0.2874003178844129,-0.38470112732871814,0.5964039986618689,0.6274052216302491,-0.865867009225178,-1.9814985453965492,-1.0462749986772124,0.0007812755460498145,-2.420740736188499,-0.38364819701973546,-1.4568926456342561,-0.3734104514562131,-1.5771650289342005,-1.0847770196732875,-0.01202932868042396,1.3055988291471559,0.5792190917948994,0.4593970041510613,0.4569134890679096,0.37984002089691893,-0.8437764850590371,1.4658062218080905,-0.8848624507570286,-0.5589742293666845,-0.3521954809562081,-0.8824183395328203,-0.32706133447716434,0.24087306994729407,-0.17175958066938532,2.0147514369537376,-0.5831307766724761,1.1413640729673156,0.16157038838590643,-1.8386715204539252,-0.21439585159688224,0.6004083614543245,-0.4048983349471285,-0.5508509587273338,-1.2495610601060048,-0.2671591807692135,1.2043293257398768,0.1918710858020537,0.3139197521191933,0.235367654399866,0.565385138811369,0.9037923269871402,0.20487895158337596,-0.034625167339131714,1.3573174395294236,0.48406124372849,0.8944457243663467,0.1873106106087737,-0.3172514280374814,0.4459323291322274,1.0340318478810533,1.0000868261136686,-0.347327478129586,-0.3995872323783273,0.5876687400132846,0.5183793349320999,-0.5874391275406222,-0.5226473691939029,-0.8890745968812033,1.5224316091973127,-0.7715030412698402,-0.07270342952142826,-0.5805700425487534,0.18670989704682253,0.30755284923567205,-1.2275834762429871,0.6504261322514446,-1.8298113604266946,-2.1685321874813135,1.7673130457319486,-0.6559005895889701,0.34985216667144126,0.6058336013958,0.28236758586195077,0.714618247768131,0.36131350294053427,0.26761130822684254,0.7041775861664067,0.24742233183800247,2.5020238486985313,0.9617206298927337,0.6721688934777508,-0.2852725938933273,-0.16356814103474804,-1.70104861633736,-0.6431431039981357,-1.2537331755499557,0.16666316248952998,-0.02179685998645555,0.32455041831873793,0.20708367989442386,1.4269972837968712,-0.06534092323800678,0.20093981400674713,0.634456402025199,2.1426711594693604,-0.5925627677123427,1.7241591535986853,0.31287016250557853,0.8648297862430977,1.2721966524781678,1.8947738404291128,-1.0643813326857605,-0.9825240173947143,-0.42135483733113777,-0.85219801628476,-0.052120043174008146,1.0315047586298758,-0.7555499521518233,0.26044037649176366,1.2194209567006862,0.2820216378694773,-0.4051120981107669,-0.025244923800032466,0.606759873815105,-0.7204442325597188,-2.450917365429309,-1.2371053361932658,1.0707366125478106,0.3254919676681613,0.866559460184416,1.1099827364499941,0.8022373312986761,-0.37103793409658203,-0.10813877616022873,-0.7690750864895352,0.5766165694410154,0.295992867127784,0.676834830167665,-0.16034341611004804,0.49227664999337634,0.30904615194221263,-0.9813541323254641,-0.36634406865211117,-1.8515744343362062,-0.19564075555392432,1.3914058928402657,1.1938202158186926,-0.7154918847865118,-0.48029414335137377,-0.2558597734266864,-0.27051031480801724,-0.36143748960234034,1.1644325303603578,1.078480979242577,0.1442372564814087,-0.4648429303809506,-2.164745830414515,-2.355536608293873,0.003919477850432658,-0.13117977127130548,0.7890068561147091,-1.3195572114920129,-0.4414345844844802,-0.1958685684995887,1.4822519751141556,0.4332639223727723,2.1719530199418973,-0.20602129328445415,-0.2528581100696396,-0.6295043743099797,2.3370549944842116,-1.424652880763744,-1.0346095206161134,-0.4406588673845366,0.9341692503906068,0.5974716787090649,-1.8869251933999676,-0.10559804496382955,0.8140936683768085,1.6749109658966126,0.4362911389346016,1.0082052847553815,0.621555181802916,-0.7849562496446728,0.028408555485941463,-1.1360616228001001,0.08876348424234466,-1.1113697799594542,0.39346442237465395,-0.5562346799647269,-1.2099860130415119,1.2103685104437871,-0.04798945739695015,-0.7874229390683031,-0.5635495451947722,-0.00978803309985272,0.5093193473917017,0.5446520593961869,1.435104932725361,0.4947547171397411,1.8503825866092685,-0.15827165540895174,-0.1098938345012584,0.24646480471538845,-1.1378141559427652,0.5311173396300416,1.6552485814494176,-0.19076979236110603,-0.8325427808369728,-0.7799915062938306,-0.25166757454788236,0.21777640739672208,1.1617464365585901,2.1375832067299845,0.037793173119164886,0.503702320428806,-1.9183002399211213,0.477708960483305,0.8834918963593549,0.68587280688435,-0.06250520716981567],[-0.48222157693147466,1.334047931767792,-0.2859513892995762,-0.6952857502269799,-0.03986514003170159,-0.38643595530270536,0.06849405897145974,0.17477519176377304,0.5243084517933662,0.8078206939716728,-1.346179587348342,1.2098805684730267,-2.056300348541862,0.9253780009374338,0.13929712578055228,-1.2649262260426943,0.24591085296556572,0.43687174200462964,0.9145977822675049,1.1263644579244083,0.5112259938633422,0.08862775465343706,-0.2827698170577094,-0.7789133247035153,0.08563328687345607,-0.37060931068407815,-0.589968888078493,0.06520589066176928,-0.7350679767717018,1.2715312369994867,1.0852287589664371,0.41489455070013176,0.11842386380977188,0.4572153282289789,-1.0585734853158522,0.5691384829255366,-0.2033938599291039,-0.4181031556076927,-0.8590800299327104,-0.2577963340102702,1.7399471498504289,-0.3028919828252714,1.4131111991922283,0.6809331471109208,0.7391641603743208,-0.9437980226607386,-1.8483769261701646,-1.0499711874440223,0.06925597244132982,-0.0027553691793545296,-0.40665594260261695,-0.7030856883119829,-2.4401870028982393,3.0249671113846683,0.4620008974244153,1.0924475741609538,-0.38384967420589816,1.115502069666042,0.03506449219160619,2.0914778304011636,0.037373811618445746,1.7842545452880463,0.0630017263127079,-1.6032966588052244,3.0398903624500875,-0.762111877716725,-1.1383849363721503,0.21262555189976676,1.0099378741422547,0.4268378515382608,-1.435347407248114,0.35860595866820677,-1.3401247746328122,0.30984831353717934,1.1492915147260496,-0.5172671886998079,-0.16531520572406747,-0.5078087667887812,-0.408510351846246,0.14286133174854987,-0.5857832140794036,0.5328133678069565,-0.8036835440096922,-1.1140502499362863,-0.6698373928725726,-4.177336775009138,0.18713641350794552,-0.8018251556375335,0.4159863981173227,0.2451795496316213,-0.8697772089086103,1.9431279337838112,-0.9940977306192765,0.7810353983601529,-0.17216097921409543,-0.8485730047496893,-0.0817786453534889,0.47308250893201664,-0.8011091067206481,0.33305660415054306,-0.5944817081554167,-0.1535619863873867,-0.7741815878873886,0.22158182837275328,0.6967656938671023,0.39494508844396603,-0.9978360793642471,-0.5122377465052965,0.7752319637634256,-0.5969723078676539,-0.21005100252988373,1.8375102230154126,0.09999233430976488,1.0271199516300746,-0.3161356972727145,0.6878266489306768,-1.6842230328279546,2.9054202667166407,-1.6460931991166086,0.9074006034757431,1.06716792474979,1.5682311528236412,0.36213095846372495,-0.2009285259068371,-0.7555573839781443,-0.02631461073661771,1.581464546725027,-0.057852578124729714,-0.4879147359653824,1.5464388546782821,-0.19968614659472697,0.4029136613636212,-1.9960808768047404,2.2766887258056316,-0.0363118245666687,-0.2184807890581027,-0.8447309551941181,1.189606935179162,-0.2933301990736336,-0.4379259199750085,-0.39242930451441327,0.5343225843673365,-1.5719677644520365,1.275168627801462,-1.7882015226699302,2.360249338167089,0.6033906102145724,0.16298489306097075,-1.6578915861540444,0.6096456208660883,-0.2023338289726266,0.635613709319287,-0.17620984239796034,-0.3603720453691407,-0.5286746246222521,-0.3502190024261089,0.550528863252306,-0.2684159487214059,0.5759569486612685,1.2656373291920606,-2.5059490559788333,-2.5402960418183156,-0.37918076594679917,0.058664995340847945,-1.2422662026488567,-1.1288121803379394,1.4340927210511731,-0.29109192227699343,0.4216431008665201,0.07387384408074765,-0.7683233587649452,-0.39633496621932207,-0.5999864266718528,-0.3484421877645993,-0.6536822400109414,1.5970150340855573,-0.022791503675656424,0.9994349687588867,1.0434480942255717,0.08415415521349588,-0.3221212809758095,0.11451932072507118,-0.018104703495077715,-1.4203596269320076,0.6680696769908855,-1.3803674560369386,-1.0826528366326449,-0.9041296617890521,-1.22504050757878,1.1710127955446676,-2.0870654221976728,-0.7270965613450485,2.244947682577885,-0.4381904124925307,-0.17471631472100418,-0.7487686286736689,0.3192735619421296,-0.1971193761533188,0.2824283102959741,-0.2362968624610693,-0.19615839104078178,-0.0542916885426125,0.19030011969155294,0.30831888045530564,0.6365108550795593,-0.0914535330377057,1.3960488886398337,0.8588124885177953,-0.9280432276481095,0.11165755952250637,0.7159870675208484,0.27078411748130665,-1.005914401329359,-0.357736605437295,-3.3985762222415823,-1.5509761272258062,-0.83930126542071,0.1733553166559565,0.2467844327667942,-0.2039836881014816,1.8535959556266235,-0.6707996410551769,-0.1962545870829694,0.045259641247913075,0.8461684030457499,-0.28949561224332915,-1.661400274157474,1.1610275661385876,-0.9144125968405923,-0.5050916454223252,-1.0126656320025387,0.2891267566289197,-1.448352809985302,0.5008866351168269,-1.2151919664437365,0.8242321448230772,1.1612941803171897,-0.23486640290199248,-1.038231833292316,0.6150268324994231,-1.6061289132050935,-0.2791969756842551,0.5329140281632306,0.802872862583678,-1.0607297869692383,0.14650305727414342,-0.4930190355160446,-0.25354971865822207,0.8535997968161637,2.259379340576639,1.3011520312553364,2.9600600209781747,-1.6560603253714163,-0.8871096451068153,-1.486468411560968,0.7598238729508678,-0.4279577942234323,-1.3746349208675592,-0.17128779666012778,0.7063277357710808,-0.2908197704336413,-1.1938249892799684,0.5984200248956527,-0.7519895924372579,1.2110688748080536,0.04343912663019478,-0.2630401227456239,-0.7654237554704133,-0.025723652057368165,1.191925940809902,0.18536933933963076,-0.1824636443439897,-1.5065682746754532,1.4037127075600644,-1.7617463153885922,0.3181870893457655,-1.2844026904058292,0.05593227915399635,0.12918266147206922,1.029404462219509,-0.46952040366083336,0.009581693720295653,-0.4725550373024196,0.21926744445594296,1.9145471833989158,0.3180952273854805,-1.2392012174944058,-2.072358017801479,-0.7471798845438945,-0.4860587446208275,-0.3936995731134437,-0.6261076302972318,-0.1505280687295145,-0.5562738448698564,-2.3371366778685467,0.9053966324521311,-0.4536139096832796,0.1633725886075807,0.1857659446649276,-1.0002315023870259,-0.5490324177599288,-1.5822925259357128,0.10528776280383832,-1.4500481558513565,0.10316505425874252,-0.9544802083814363,0.974184301241556,1.004514335951957,-0.566240873378651,0.3590740157880877,0.2065419674555081,-0.46010421790571643,-1.4791164236378918,1.1253447038406628,-2.1804068871378375,-1.0079392899450403,-0.97994447728956,-1.3426057343561353,0.19885109875397422,-1.8609930566415867,-1.4172384843327615,-0.5351073201785947,-1.54434181275494,-2.252346523702026,-0.5257391676024836,0.3257544023588691,-0.5612642019452773,-0.6903580095481838,1.0581762699277872,-0.9788032611454373,-0.8440987465180254,0.47560088652574456,-1.2210782471411334,-1.069883329833405,-0.7560789121759453,-1.4695466382043016,1.4116792062045267,-0.6177161928547855,-2.4520760911402846,1.484681383558412,-1.734503404840527,0.29883204945442027,0.5923088358233918,-1.5464179713317456,-2.41650726059533,-0.3824165377723765,-0.8687256806476411,-0.5479682242036102,-0.2881708548632745,-2.9319957722036434,-0.24808272164318412,-1.095332211612049,-0.6546433710971,-0.257094059755345,-0.2562452299795174,-1.203408287808433,-1.541576043652213,-1.7605613024659996,-1.6762124671367828,1.2941134601297355,-0.05158361710566588,-0.8533396967975551,-0.047387662051798334,-2.2544475841563387,0.3802154439057809,-2.065961395624226,0.7466957574216286,-0.2788760874109401,0.4258868883469366,0.2613119990125589,0.8768811145783466,-0.06168373320943593,0.21689811382053625,0.1493249748335333,0.7032167429277811,-0.7652620479536294,-0.08831747088222215,-1.7737300399393239,-1.6748000641134893,-1.2805477998011183,-1.3752916882525552,0.18073393618753197,-0.5775780313327329,-0.31540117916902916,-0.7872557451113077,-0.3955149783562576,-0.38466392265623434,0.8218217575113795,-0.020181631959008565,-0.6043208682461959,-0.01519266058451575,-0.10702349071852245,-0.08591957301973922,0.9574607134621245,0.6237690321660947,-0.45020783228695105,1.4221001075282085,-0.8750192361149638,-0.047092477789800066,-1.079779353135246,0.5927304002175533,-0.08839102779077207,-0.09572443402776488,0.471212903196277,0.8008374566978087,0.6220357621876788,-1.1610269500928525,0.18110237662516146,-0.43555840940896107,-1.0429535630340556,-1.039217686949443,-0.004039120706327093,-0.4313248729203942,-0.9205348293764931,2.053997290070011,-0.6653412461115478,0.7161414106873557,-0.5482604953132066,-0.6766607306695916,-0.1713214532297864,-0.6565565601117749,-0.13715931478757282,-0.2686938391774665,-0.7737608123436426,0.3729880132590056,0.32112831868540054,1.07523591936195,1.3981387708897708,1.5405047814795887,0.9338688506803522,0.7861815338036409,0.34041593428411987,-0.1683115902764089,0.3704365868792324,-0.3550782954723161,-0.8009209385450992,0.6183797128050963,2.503251161466865,-0.8534377146208756,-0.6835719699072048,1.3687581263183597,0.8132178454595118,-0.3161311584476686,0.024521119415218444,-0.07631855315752976,-0.5393124832506885,-0.4901306288524544,1.635698170453466,-1.695542667240849,0.07886762942814297,0.5015070068581471,-0.7351929172043359,-1.4095578563259863,-1.44784032271279,0.16951604628683498,0.47520767953626347,1.0305272918811132,0.21786263096154102,-0.40170197676517355,1.681945752206583,1.2527776350462483,1.4134869739779015,1.0097952050450578,2.2312839570959797,-0.006730179836795228,1.1894139758529083,-1.0501328260109393,-0.8363318440514672,0.3069743639584763,0.8632740031041876,0.5525887331751026,2.3469316736961034,0.896220260704447,1.1124081532086194,-0.7690763423084939,0.5770233215947449,-1.6356436878638383,2.0323289657257173,-0.13927445403091257,-0.27791430000932515,-0.2746864264840662,0.6178671270726143,0.967395593976593,1.4726270337975365,0.0557364890153454,0.458243297575827,1.8455906921468914,-0.5875003215385083,-0.8686141266076732,1.0022091807857587,1.709237335406774,-0.4792877633313358,-1.4696683339208854,-1.1673748944640403,0.9805391140675943,0.13945392598365478,0.00844559155332601,-0.4950814613543924,-1.378783386001361,2.0529463076536603,-0.9852385029721943,2.1655925102225906,-0.2854974116443923,1.134211421670351,-0.35268951290344586,0.9530124054769653,0.37181807623456803,0.341461086687945,-0.3746484098072814,-0.14382113634626756,0.30826689442806865,0.01382370511894667,-1.24548324312684,0.3300458712583892,0.8572736879507609,0.5059160666494676,1.9918304647206306,1.3350108710908437,-0.3582468923217646,0.007315324629227745,-0.11601521609763699,0.601976978773979,-0.23962689907446305,1.1304715617558942,-1.9766710493624318,1.923774087723244,0.3916598047079329,-1.080787239460328,0.14558915083443116,0.35616586902820546,-0.31836181113998807,-0.7751107248266619,-0.5665703514794668,0.15480085553665965,-1.003644890836653,-0.05371764224347106,1.1761285625457645,1.7216052258976744,-0.2890960904543827,1.3326655618058096,1.9081905691435486,-0.08289713896484127,0.887157584924841,1.8539592123986215,0.800998433640781,1.595407387441566,1.4938457381165233,0.5540990335483753,-0.11737402328061716,-0.3039172271412881,-0.37133937876703804,-0.7763181600457583,0.30075624277459073,0.8245964970943508,-0.734091341102662,1.3697735952714705,0.11720445728646867,0.9248039556884284,-0.03348853642490976,-2.940732080512163,-0.01140218050396702,0.7693031892149224,0.8345606575990204,-0.3182202296132529,1.1310883821367468,-0.3285199034147108,-0.6921857457365549,-1.4467341123720059,0.2533240290023908,-0.7660483152688495,1.0742038006553252,0.8429015925218217,1.0140754612682528,1.62775518330131,0.8159970003759772,-0.6874965206152219,0.05519672559134421,-0.5461314797195532,-1.8131898743812807,0.2333727872891404,-0.05546007727805817,2.6907289417449967,0.1606007623011217,0.33089068016786,-0.060281475749736746,-2.056910829632498,1.3249459449923833,-1.5689824769804095,-0.6386187886042938,-0.4444361851704611,-1.3983393803769775,0.8382178285497424,0.05593305730018612,-0.7385231043043993,0.7061865631057868,-1.4955323468804602,0.7347723372678057,1.1999981759614085,-0.5131492754551278,0.5325876360207263,1.1575071847728289,1.443320568867532,0.46510567861640306,0.9305009818632701,-0.8658051647763594,-1.0492098502424483,-0.9064130089712711,0.011530806264926667,-0.5836543168749954,-0.08887784306725302,0.6538428448473605,1.3272846913442906,-0.46750325935650305,-0.3346131412283555,1.5499698398330328,1.1125539789883927,-0.4066157137561844,1.0977735108689932,1.592607639072178,-0.5491215009957153,0.9032252498229517,-0.7241183101046856,-0.9949990846522926,-1.6832796841963897,-0.021843362409058,-1.1556695543586781,-0.24348044170622962,-0.13305483642783042,-0.8622377558178752,1.1638109560488386,0.5082799321512854,-0.3166995872631673,0.3611000821835292,-0.05341213358009922,-0.5891592255756073,-0.19270559185917274,0.5965174983008491,1.0548576777124532,-1.4651220252531356,0.566617885630664,0.815931671324143,0.3605012453972606,2.407869765042206,0.860302041514275,-0.8125147281231624,0.7020606531610399,-0.11758965470206273,-1.2845776505995563,0.4200776116404947,1.786136598435841,-0.4515709732672198,-0.5561715777090661,1.7843144408116263,1.1484754158439803,-0.7296629356879354,-0.9584862096649988,0.8747016284597284,0.23306429711535664,1.0181485475175724,-2.3934077141881813,-1.1693473610875667,0.33401551281111347,0.7381834845257266,0.6787227012521033,0.7630321096768261,-0.6711044333426216,0.057281429010375966,-0.5830605078348438,-0.07527522718584005,2.209562525578743,0.7383599973707013,-0.17027070533770233,-0.4874953921635497,-1.3240468755360515,1.205717560110769,1.0219622559150068,0.3223869992993494,0.8263972451207272,-1.5683547253884589,-0.14763944224177747,-0.5085980069705572,-1.9349367938973185,-1.1111540888262772,1.262065033845601,-1.109329269570779,-0.37685497328193984,0.979873333790606,0.8912807544776742,-0.9278043373404748,-1.3974571605295696,-2.6382555917093398,-2.395719509915313,-0.46687021222475805,-2.4411705444756495,-0.42142435448041504,-0.8961728914103253,-0.7906641120899136,0.2578050737791816,2.2398084168518992,-2.3075125685403903,0.711994405807418,0.6736657846091497,0.630050715815188,0.19353451392388737,-1.7816223894331598,-0.686208003596612,2.005307672815732,0.634608368348164,-1.0393065797184609,0.1789413982433892,-1.0022119380538277,0.3481116749537513,0.2884066738604169,-1.2850961653064603,-0.03912591267907441,-0.1147593125512033,-1.5359615628534928,0.18621377087810162,-1.6050392458508291,-0.33810433110238575,-0.39379626014723756,0.09352504073221889,-0.937304147033802,-1.259919846070568,0.6461353699662675,-0.8913983335250628,0.31577748468115613,-2.033265979038565,0.24744705075131568,-1.0134276955005255,-1.3865005682721177,0.5734698514977855,0.5722059668678564,0.6717131109278622,-0.36588272431021784,1.2847140857957777,-0.14701658988224175,0.11883289502912414,-1.7859174545453758,0.546495417105208,0.5531664568487601,-0.7558501304782625,-0.38714139320448115,0.602615137553991,-2.4421332067646353,0.7487653745548652,-1.1252727014401065,0.4803931554400526,0.9119167628198342,0.309228322680783,-0.02269399867342799,-0.9652101441384077,0.45934051763733924,-0.5908634008050411,0.6845939307320557,-0.24560978485255783,0.11748581192552657,-2.144288658797282,-0.3760428042170964,1.2684401104201846,-0.44506315293487253,0.6014124074951473,0.10181656680432694,-0.6866607025692787,1.3057610260809895,-0.21706604942444988,0.043183469268803995,1.5127755699228635,-0.08695282064937575,-0.21692474883834548,0.3041275295307642,-1.6569265896328405,0.5743299441857403,-0.10525016199217604,-0.5775809646920423,-0.5149042202346809,-0.24966921571261919,0.4634865665500595,0.1296267973257731,0.7577058974131818,-1.164282409348534,0.21335720661995392,-0.9654252615530655,1.3190405189489847],[0.19532866088865988,0.8559695022534474,-0.25733021396184497,1.1952909635689486,0.40627292762518386,-2.117780825082664,0.4922305609893702,-0.24428624451609207,-0.3149845581314138,-0.9196593243154404,1.389634134095243,1.458613604461435,-1.9696836608320412,-0.6179623658844194,1.1091029294379928,0.526385418289705,-0.26551426431170283,-0.2265624133207383,-0.26825310763958754,1.138849261911482,0.5183924397949219,0.970372387259445,0.9646556811865669,-1.0589839006245152,-1.1606212539089102,0.8259191788011923,0.1831237070541902,-0.7160063180544619,1.3670817934482018,1.73472213556569,0.49397376628590345,1.2121405779470233,1.769850472350509,-0.08350953636222293,-0.07263871132826935,-0.09804421354641465,0.19170660516723242,0.937440381417994,1.767977074216206,2.2034940893930437,0.4750357819734243,0.19037535377267686,-0.7565496849509878,0.17617529863922032,-0.4256831536231852,0.5654975138262215,0.17995565725181903,1.4808698805869764,2.697364634283828,-0.7586746448883294,1.0507584021645127,0.008451218900420953,-1.2267719243634412,-1.0837116031355967,2.100382911625177,3.5897862845354833,0.885113219397837,-1.500561089509638,0.7772086028138314,-0.028044954955902226,-0.9049832826303699,0.635714446709858,-0.8135070868366506,-0.3280231379335972,0.21887735920947987,1.0423222282246762,0.07966036768441959,0.5094444366620167,0.14526879067547108,-1.2205198451225703,2.093988306807719,1.2352408352214428,0.34924937795822364,0.4646571650906043,-0.7277847837104144,-0.011246657413521228,1.5212707011453397,-0.5938044958247694,-1.1675727711755601,0.9531879334271788,-1.4511368108600353,0.6308687982357062,0.34503185409256754,0.6438582663957286,-0.12832432937802515,-0.09972100311620737,-0.14750741856743127,0.12268259246960103,-0.4760923240445608,-1.835019722813107,-0.16880147417262306,0.2739472373373342,1.8604728360030909,-0.8609315798945739,-0.5124458537252519,-0.8489853582900169,-0.7806677675691925,-0.34363810543679424,0.44271706993687326,-0.230961984093843,-1.2929532303450708,1.004955750887307,-1.0314211486766123,-1.565566103178411,0.00898605704568158,-1.3244786581936485,0.053805799179735894,-0.3146575352117621,1.0653556081542046,-1.138426224880639,0.9552204424927768,-1.2917293053912702,-0.10646084943581027,-1.1057179389909628,0.7232484619335807,-0.8752304875057088,-0.09841625812645699,1.993685851720178,-0.3402293574107854,-0.5441962481186926,-0.9348098601773213,0.317425713496617,-1.5455567385310256,-0.4891995777573501,1.1777159644287571,1.368674426288788,-0.042467150719727696,-0.8030798021770815,0.840490233613349,0.2816988277223235,-1.2924437541595464,1.1461817612965337,0.916218028735543,-1.6393243144431213,0.6677500869339227,0.14520089031735298,-1.8679408579757981,-1.3609594650016836,0.6194071522987478,0.8577750441841875,-0.7210647438822563,0.477447879237065,1.8590962827631932,-0.29618952213134986,-0.619350950216265,1.0784527325903581,-1.3608465582922376,-2.1453519242866133,-2.5057815616349894,0.7052422387725873,2.136064989076799,-1.1651523469752296,-0.05604463460695587,0.20237049019615466,0.1040724799709768,0.6698750098990022,0.38050297895810575,-0.30144485355988104,-0.682258660479189,1.762058412147553,-0.26753917263671795,0.37703562729229007,1.6561823486152152,-0.34173936518011344,-1.0176092322532295,-1.3641911492260723,0.68537878996608,-0.5521708176034394,0.5034422842861525,-0.1716154101042631,1.0480875068425246,2.3181696168404176,0.4863220452162882,-0.7656737441052647,-1.8580502531552858,-0.1428058657626521,0.610988347915943,-0.6310452115626909,1.062410885708942,0.43026137449706003,0.603559379008459,2.505164334896349,0.2802533494337933,0.061417893777037214,1.2418729019971533,-0.3748677539581699,0.7447637596016993,-0.41557914005623314,0.5109957372490256,-0.6338904246239739,-0.9593881959492144,-0.26187286285921235,0.4597358634908584,0.705831632405865,-0.23690210579879056,-0.4812117338974236,-1.0331752777996823,-1.0224737655081546,1.2089649225820758,-0.5363994102677243,0.7923828632131049,-0.949337838646489,-1.1956127727340846,0.11838771524676199,-0.5071842133153468,0.4701186651474221,-1.523068857596784,0.19897676399816344,0.11530273040444082,0.32486260248800447,0.07362416455819883,0.8139344646784652,1.0358156593745504,1.043410654900438,-0.10619168372708741,0.7897928031108735,0.093918653304247,-0.0137050204380562,-0.7317463658242527,-1.0637851111786631,0.1541596210742597,0.864691238787088,-0.06842259293321824,-0.10738365888153173,0.2086937584645542,-0.2297819604621127,1.0575962694157752,0.3665185458334518,-0.9378547094944358,0.7739886862289983,0.8671804320286919,1.7155349144148426,-0.027036560233803856,0.25487976665480433,-0.5989412171903418,1.0800559933666365,0.40770631818494896,0.09148387944724262,1.002707503680807,1.6014922844025976,0.28527438721219667,0.8261748650870573,1.3838755403348715,0.0743319761606627,1.203997142651437,0.9347564706209069,-0.5825813984703031,0.4876661797467957,-0.6494877640205454,-1.807838262788487,-1.0631431664660134,0.27458404686275995,-0.06952113146818863,0.6405287192287875,0.7390709377201599,0.31461312259773005,1.0453359580624642,0.5604658237597687,0.8982907779321755,-0.7360019112582359,1.54603114331866,0.6233645376125232,0.3991829802597555,0.9517376559742626,0.9092207226359871,0.044321997193952474,1.1762663340531205,2.0295945552648416,1.2741475618389,1.3724171845765198,-0.3351049552802792,0.2855416315388588,0.5976550689212897,0.09619577705231877,0.13165690953201456,0.37721933065182456,0.7911904968452451,-0.654870088663811,-0.018555016670371866,-0.7995985547364499,0.1241498115253247,0.4157751911850572,-0.5902151178413918,1.3842781517399267,1.2165813356133333,-0.1974050666544624,1.1814729836018107,-0.06667452078437854,-0.27951583972750726,1.0236279847630867,0.4900757202166272,0.18031113963836315,0.03510686939761361,0.1658616687119715,0.23857399006391666,-0.7620923601803277,0.8033826144122707,1.5342496018859992,1.4919823867653963,0.9348680092295482,-1.0054396761336741,1.6518838420198585,1.0261544670614993,-0.4857838041472207,-0.44364031442508794,-0.706297446244408,0.5768506149449792,0.9716741608707827,1.9630220473221562,-0.16305600988011787,-0.23728435546944293,-0.5933530691098658,0.1898197754051701,1.4776591391653513,1.4582545465642065,0.4621570131449855,0.23851694555940223,1.0592536604849714,-1.4857890258848503,1.5313985100661787,-0.5627205280419465,-2.0719885295200307,0.5329963800864089,0.5264908053571083,-1.502146888372873,-1.0120194375304432,0.7801592088743132,1.265924180410578,1.6040719879253968,-0.30262787469475744,0.33193341307748486,0.6412411670525695,1.031490209484561,-1.2417832320766524,-1.9383794999821882,-0.477754502357789,2.1206556112739734,-0.249939311655257,0.35174600819671137,-1.171070371063454,-1.1552654484422453,0.15130044634210618,-0.927341923922468,-2.60032959582031,-1.6166052738938212,0.10220233717895287,-0.8684109725579139,-2.571495778866337,-1.5817735605132954,-3.5018039960602443,-1.0321559652774361,-0.4378446241001037,1.2557929681975422,0.20487998697750645,0.44437803481872834,-0.2900278967182584,2.018281031638003,0.6202493245187619,-0.9377903069527701,0.9437500684472496,-0.43938274324259824,-0.8189596175369762,0.28031753722360186,-0.47771402897966403,1.5410804664764082,2.639799094953971,-1.8114275009166478,-0.1089908482112356,-0.271142243799642,-0.12968868300011943,0.17726712136716072,-0.7054498433694206,-2.7133746445458264,-0.5320535532603782,-1.726122133331488,-0.9965594790375529,-2.8101697978309366,0.7143533008523586,0.4807037496971897,0.7321515047049014,0.52008036181685,0.91620848902646,1.8390213741388663,0.8525142738012237,-0.0774813887412291,-1.0410276161060745,0.2319633594382496,-0.21612085974662879,0.8296638468716785,0.6715840428039305,-1.1998162721052417,-0.31445879606159444,2.2051711696166016,0.7305968702106745,0.2892434634906087,-0.7385300426505651,0.384016643136792,-1.3351689313144053,-0.1959702307047841,-0.024372785221482965,-2.4532054907978633,-2.7930103877326165,-1.5304312773912492,-1.1953840352939449,-1.6101648271315891,0.8570146322969243,0.7244009633858217,0.4961811057828332,-1.0330527350666499,0.5550054794999629,-0.030560261292809733,0.19977112622553814,-1.6976425971513407,0.251701269255663,-1.751927087940315,-0.6513999254165098,-0.41207583761615596,-0.6729040301321839,-1.170060241362556,0.012152731700465408,-1.9217496458493688,1.4949939184059993,-0.351456312451421,0.3121238413920057,0.4670224205167443,-1.8179762060797546,0.03326170150221642,-0.9407565989956542,-0.3284321992823374,0.46286029353756336,-3.3343586011168456,-0.006352850143399702,0.8133769999336143,0.4030546895231409,2.173165269002523,-0.9627778674995063,0.5534169133179065,0.8861027058633032,0.3022895501738679,0.19919028080093826,-0.750494109683545,0.8248665155308404,-0.34876796758502243,-1.9508829894173056,-1.0609936066604155,-0.13578210814555036,-1.2442870240753217,0.8761717091849471,-1.3066633329440611,0.7820515717760042,0.9662874723241687,0.46340502706980174,-1.125097950309013,-0.22832436313243035,-1.1997020029683483,0.9131460139075359,-2.2221717816201223,-1.4151701031063266,0.6665668867846237,0.3404435078451939,-0.017755962357707374,0.7483918879092007,-1.457297899244101,-0.1436196244668392,0.21132115853055503,0.9072571441576712,0.17741317671573642,-1.5626079762811478,-1.078811569832452,-1.6507869943434026,0.866345790741992,-1.1544386267511286,0.19919995867875023,2.055085911538578,-0.49351000762392916,0.09053694402729487,-0.1018354298567313,1.550707084075066,0.20143807346381867,0.5639302884541113,-0.434846657347104,-0.22898081337493165,-1.8666039737341626,-0.6440463285181145,0.6124928910066899,-0.2290378172206297,-1.2466388364675338,1.8819941425177509,0.3525806685162868,0.6108992261916187,1.8322959572470165,0.26036224879152925,-0.14408822787115114,-0.6188824909035352,-0.29629949092752245,0.017170091310045845,-0.9723245896707653,-0.2801236812686833,0.7499769506264449,-1.3624925461908561,0.8331981730167377,-0.222066934738412,0.378995513195297,-0.16269335807752178,-0.5632909926829478,0.9559025340473944,-0.08048824502204353,-0.14200892800163006,-0.4381644148292819,-1.4429309247887974,0.17897305832473642,-0.9520002389444813,1.1374833519700251,-1.1640209824561882,1.2518928622789776,1.1588252268887311,0.006999159965026074,-0.8340260638395024,0.1740596698757991,-0.00553889149909314,-0.6799122913670153,-1.4316715852458346,0.42544620723419524,-0.37652158298517174,-0.7884811653285975,1.192069775685169,-0.7420903508144202,-0.5060345755515719,-0.4306806394594426,-0.6420205883013299,-0.2912226649512184,-0.592888596717611,2.0254070344366726,1.5380935751161033,0.1414682328346291,0.07157688727949596,-2.5869925859537815,-0.9279437034213786,0.5430139212543679,-1.280076620492778,0.36136741563015473,-0.6524825899583307,-1.3186862773248198,-0.012982421324591563,1.2420113981712133,0.5099516211965798,-0.8694283220032173,-1.3036741493165198,-0.0352359213868151,-0.6824757978012769,-1.7074307071481027,-2.796801746089318,-0.7519278199700824,-1.8307547874475163,1.2835658447160656,0.4074683082078898,0.15527052656448065,1.2347761361876364,-1.090107359065478,-0.27070092293612974,-2.3194552428739605,1.5124866759219309,1.4824636816534154,-0.08849038035241073,-0.5589032809262791,0.48204077270383916,0.7922689813809008,0.5056709681001169,-0.8424392513075972,0.9178311013887335,1.1046836118696972,-0.20276177437111986,-0.9510612461434865,-0.983939729495032,-0.9578695542730697,-1.1445163628042012,-0.7405094955844912,-1.0939256815851912,-0.6787085842200825,0.46968203757943,0.03313527310716193,1.7145014178136608,0.5135452376169143,0.5138067879465378,0.5375461822460961,0.014570676826200177,-0.4643074220775642,-0.8567643741794396,-0.8377059216499735,-0.8212610114418146,-0.12006979865645687,1.3141595570216393,0.5673096926234504,1.734701240463639,-2.351840897518718,1.103419602151297,0.22176133216883995,-0.4109688121437093,-0.5571009797356865,-0.649592168309295,-0.20832603131909108,-0.6439891825396326,-0.3823690985872695,-0.4988014904588863,-0.05153924148168731,-0.516751429600624,1.274519068902191,0.5037320680296735,-2.1852186919836076,0.4548861454949232,-0.4536567144429114,-0.49184991662765304,0.012401290456904869,0.7031872958532145,-0.4555391545613918,-1.3634496642050324,0.1090129847687931,-0.9908686391930234,0.8645436666960159,1.6383420790082195,-0.04736608497852256,-0.3928597528442942,-0.36915731092882426,-2.581837814459549,-0.158904398079058,0.2748498443930507,0.6494306036171528,0.32578730728763367,-1.2485443088303094,-0.3677028630458865,-0.051519690726058186,-0.6879997316782265,-1.6833222887750325,-0.040893130935204566,-1.6295822117193675,-0.5849643346281543,1.6644503649113502,0.3797174188360672,1.0505087977967726,-0.7888584192557332,-1.447129637234744,0.6902334567616919,2.175109653461535,0.2237206502567365,-0.08051879779705381,-0.06782979037098692,-0.8500940161024838,-2.509116343082669,-0.7353874061480187,-0.4842813896478269,0.04492468979205512,0.9321208075761098,-0.24588172009702583,0.7231587371366157,-0.025386304164867403,-0.963426436442904,1.0027876983660258,0.7461731568866119,0.24799096223367628,0.5643753174643675,-0.14556965827469817,0.12998248605887378,-1.883750136651227,-0.6190854417005351,-0.7703281959246367,0.5470402625953499,0.19241279516114135,0.12409910881195065,-0.44746560108630457,1.302009185135204,-0.3509433385918841,0.8677675060047539,-0.9996787082011107,-0.10087018426846012,-1.1620389662235848,0.850312363016249,1.6084937255497473,0.33841198526387406,0.5220654357991581,0.5565528341376036,-0.3493882056658805,0.3856902155605126,0.028810432683051588,0.3982255684795478,0.795622230759699,-1.4517486636968644,0.5948175405553939,0.2957925886970923,0.659235704265398,0.44464117784775714,0.7921131791347509,0.04988598516763979,1.6746932288457703,-0.3390397370368186,1.233776212311817,-0.636904855817133,-1.2906554713190939,-0.3441764534440299,1.1399577588611314,0.9921024102264224,-0.4932973097160299,-0.7697219232865588,-0.031053313047064712,-1.6683315563676984,0.7293215085135818,-0.16516286427216817,1.1267090581112367,1.4254396897215824,-0.7702698332421082,0.6770738398741876,0.4708430093286275,1.344488137418147,1.223851301349747,0.32290077167223424,1.553965996947369,0.0023989390861535826,-0.035758713791323886,0.9632082927299161,-0.20110859795329059,0.32751319056924455,-1.035589839282032,0.5858452990163928,-0.5605147263658871,-0.6432750807618343,-0.0937376236153838,-0.41724824488848006,0.5361820657001011,0.6054848404970256,1.7646078565569219,0.5444303244176044,0.2058966360269978,-2.2950110373989427,-0.798967190470879,-1.419100217712163,-1.5579135193408011,0.5593998088037476,0.5128750483505949,2.1898542226288016,0.5523279674369651,0.041730216274203084,0.05557469103459612,1.4671149218495152,0.8281378830779196,-0.0656045465749382,0.7405269735128897,1.6188166261625545,1.8916280962750114,-0.3368896622271915,-0.7789563236482419,-1.9865673120645269,0.3476401910447222,-1.0047510831703153,0.3360376554687053,-0.24783231881274637,0.5297970925256252,-1.947735641174702,-0.4264547674499547,1.0909400911241929,0.4717018814587349,1.8019866773563284,0.6556105991136244,1.1167604311539368,0.13893287710396002,2.319270126505284,-0.7095731572625471,-1.0398132295230271,0.0842527623965785,0.6929291259207607,0.4002581297964178,0.5963719840334446,-1.7296726059642702,-1.8587152988870257,1.3066420424411926,-0.13217858253727588,1.0226775257749794,0.5119913996674443,-0.18445914288806226,-0.5293801712094663,2.3916695934597625,0.4785190812150533,-0.7828092533864305,-0.04009562287429028,0.8224647753313956,0.96388421936627],[0.33060941335686445,1.4730656498274426,-0.27389210503348094,-1.7035445191557816,-1.1542294729432239,-2.0022079248240834,-0.5648614823553642,0.1706729590552527,-0.462374557413069,-0.5659849229304905,0.7496228075051157,1.1868768052472491,-0.3786279719030246,-0.2847625144145973,0.1684973592854268,-0.041808769661276585,-0.4928916978814518,-0.04619720956311213,1.073896186952071,-0.827163366619453,1.2645126178474428,0.4089766669131183,-0.12378162480944603,1.103963354571828,-1.4131710535044135,-0.6879108972620572,0.5587842029186736,0.4029923802364971,1.828285214774304,0.7031393982453727,1.4591917702447177,1.0579549844731588,-0.8190132955967825,0.68315339543831,1.6841133634872922,-0.12495676464604402,-0.30346613570384495,-0.5267879817819928,0.23115242170294126,0.6210770630045145,-0.9535319049395529,1.7818289160702092,0.137698967406652,1.1838755718849314,-0.1764490788633624,1.0736019181688883,1.682887228645184,-0.12250731168289486,0.9517513803414346,0.21344298469033712,-0.4907821489203474,0.2074994757400113,-0.12296878468506438,0.4935961398672891,-0.1325795856255481,-0.24986443277482048,0.4863387908835681,0.24456206323729826,0.3359947376830208,0.4914775177823182,-0.3398780024620139,-0.13518925808158574,0.9330044143196311,-0.020844969061165466,-0.40493734116567454,-1.0304600162497881,-1.8807186576056298,0.3570504350037699,-0.7705158806142428,1.506280943227273,-0.09349333260339886,-2.200143066073678,0.4484358626373454,0.14725775445599198,0.5406940873967628,-0.19671779616876459,-0.45725680088938164,-1.050388928089566,1.211849817732033,-1.4295144086091556,-0.5829365104909218,0.1018054114107505,-0.6799903275916211,-1.3236627814279682,1.6473444634028027,1.775784293819486,0.6197234325900073,-0.8363214186960602,-0.45256967130877185,-1.348979197007947,-1.1791327494133204,-0.43830028667272786,0.3280138682472975,0.01670352462409263,1.2018724663846452,-0.527715401168604,-0.23534564325629861,-1.5631919336012872,-2.084335548410906,-1.0323735213243246,0.029078278272719124,-0.2844881125264193,0.637109544853739,-0.5750271188166022,0.361470196546797,-2.1154684381823605,-0.48494778952794376,-1.2186103265401105,1.810334887817413,0.2880267883215857,1.38425417784431,-0.9900096214223042,0.48007936711183413,0.7493400420232164,1.3868507406827546,0.19917157655645065,-0.7460957066266576,-2.370734141440104,1.6018596812126873,0.6375575594436079,1.289694569037062,0.0032546779545468076,0.1968656505572371,1.1237015975213134,-0.1008184317013168,0.14215115852866317,1.039431480024985,-0.4820029713335478,-0.24387026870595518,0.9536057710871062,0.019299747206095327,-0.33787321511994567,-0.5071479967510663,-1.825492341935216,0.44653855716376745,0.2883845223470315,0.27199334321823687,-1.7531878891817338,1.165546608426503,0.35377435464617896,0.5082267341633159,0.42788730762024535,-0.37073060430846394,0.7826858569927112,0.6324686357541739,1.3133408195533278,-1.1938747680982136,0.5501060559090123,-1.241593226042547,-0.3017201296171223,-0.3624417248832089,-0.37210022752638844,0.12263016593187934,-1.4096907981712639,-0.028235161461539777,-0.15022530859753128,-0.4106044150298568,-1.196615417155203,-0.01064443744395744,-1.0793667929556405,1.0400252537476538,0.7717215537414849,0.8983473034516879,0.9481424335789498,-0.08883312531008174,-1.183916650811309,-0.053725530965262495,1.6899919630029512,0.7286271768312174,0.6175984974857396,1.059125151623899,0.097406485691284,-1.5947045452097086,1.5032000882706065,-0.33437115222846625,-0.8650951359470404,0.1510317186038809,1.7913489533743816,0.029675638377543032,0.9458002382729956,1.3442490372295595,0.2858319451238763,0.863926451916649,-1.6310962480308735,1.1467060065657002,0.3471648187876201,-0.0446415964622455,-0.4071481072147682,-0.7604367336525253,0.42739350984177266,-0.3213744884442913,-1.015544693397814,0.8694082762166271,-0.5134394216193944,0.838658017039371,0.16790307653018205,-2.255229746803565,-1.1267537845795235,-0.5210464412501721,0.47549548027649935,0.4045837377528345,-0.44052940690577247,-0.5369072684976334,0.5286608383517936,0.06642267231450533,-0.8086877660280352,0.3497976959420296,-0.31501086319747384,0.9196037743295742,-0.6485010551115973,0.28199795509857534,-0.5554893040290505,0.5917255166585181,-0.7251981268158054,-0.026865605078711573,0.5198019610915617,-0.5220769249787276,0.38380865174007867,1.3628791770049296,0.9790291591180087,-0.40206793758291764,-1.737962643316392,1.8663195580573055,0.9097771955202743,0.19949375695850952,-0.5695314872180689,-1.553989129228134,-1.5181240916273284,-0.6707578630334204,0.07354601411981368,0.2818483020862301,1.4206900636933122,2.2412305781343385,2.4454609107171184,0.6832511420100471,-0.3975378300303212,0.9743315829576384,-0.5066566646942419,0.552079168095327,1.0536960907296486,-0.5361537345581135,-0.36354330225861664,0.8374301992038645,0.7984161809413244,1.199713939372744,1.040262096652002,0.639660989592941,-0.6019344431571695,1.0429177816937196,-1.054675886282167,2.370776471086699,-0.031804345458262065,0.02972207764424071,2.2730264568223655,-0.22373505393008988,-0.2854387479440882,0.2265003923441938,0.6551808326885533,0.18282561270487366,0.27198892069511016,1.2467376171408737,0.08656145780327075,0.40876704666257874,1.6435198973596632,-0.1776557577081388,1.183145248682145,1.9466708605147485,0.22234939335489984,0.8799648933015127,0.1785799351403471,0.10806944238620482,-0.3311516751687281,0.8884917255831322,0.792062930589248,0.5197423851289189,-0.8142503852501028,0.5257241929449105,0.2762517526012863,1.0536988078746332,-0.4670802831538102,0.2633035431075859,-0.12973863452738857,0.35961332509927196,0.5704189532484886,0.4164996569445974,0.4832271907897875,0.2690081194389057,1.0760310876478036,0.3818103343968716,2.0812628108066495,0.6099414251901939,1.0499806583281455,2.144594273323143,1.1328692444051798,1.6863774120288724,2.650485297252996,0.647993532675387,1.8023523818097242,1.175876927016672,1.6723900704473258,-0.6076851545897315,-0.5193537732239514,0.6024352567603157,0.6558058039186256,1.3471340747380371,2.161563913450945,0.8127935717070929,1.3813629967303747,-0.9258789531084424,0.3616107574309578,-0.09636931968158723,-0.6766058170134114,-0.21617686056632066,0.5120477791861373,-1.039586186696072,-1.5840193355121854,-0.6322509178405183,0.8987659418829846,-0.5746231067764971,0.0008245370155610249,1.996309106483597,-0.8674877323018253,-3.0940243011953306,-0.7946332971632859,0.8040385171914844,0.3821333254527086,-0.3225555699449466,-0.22483751514178635,1.498280322938321,0.3119512082672568,0.16369676126806404,-1.1827921512850672,1.2270431561892776,0.4216007349588853,-0.6535704166671441,-1.4686950700975507,1.819423366597895,0.5819074571634008,-0.4043901605255259,0.02813188974019649,0.04865745332847852,1.4318522262847153,0.8114159552286307,-1.2336461790161655,1.0611941491569623,-0.08318330306416247,0.04485442815432146,-1.8404662855169558,-2.3443054859639045,-2.2457928213068468,-2.4505781720907223,-0.48074749088315116,0.30567055470047394,0.7991069865847352,0.9518448909913891,0.8383762742934953,-0.5301521615558888,-1.3495569920009547,-1.4151879351226075,0.7721157734882143,-0.7350348352920838,1.1917809854695678,1.065185960643139,-2.074580554572399,1.1388349129039042,1.3553084914887776,-0.16481190875074173,-0.23333291989054614,-1.2404259992892697,-1.1134468241957924,-0.6717894040322298,-0.09560705356465288,-0.3151041999593662,-0.1125017872589471,-0.548545991701172,-1.0095475859936374,-2.271200624615457,-4.45272654260741,-2.9000774506096287,-1.987496921094578,-1.3973801504811219,-0.9343882494807494,-1.3452873039130884,-0.9679406392315296,-1.3617533458908029,0.05770748081603815,0.8091357872357703,0.33055518930074235,-0.38008437065148526,-1.1657729028906776,1.8953201933631276,-0.36960090356715775,1.2633613496998215,-0.43760294383787024,